float score_delay_fall(float * input) {
    float var0;
    if ((input[1]) >= (123.914505)) {
        if ((input[1]) >= (182.383499)) {
            if ((input[1]) >= (225.147491)) {
                if ((input[1]) >= (261.88501)) {
                    if ((input[1]) >= (291.907501)) {
                        var0 = 29.8985023;
                    } else {
                        var0 = 26.6822205;
                    }
                } else {
                    if ((input[1]) >= (240.324997)) {
                        var0 = 24.4792995;
                    } else {
                        var0 = 22.8053474;
                    }
                }
            } else {
                if ((input[1]) >= (202.601501)) {
                    if ((input[1]) >= (213.699005)) {
                        var0 = 21.5417385;
                    } else {
                        var0 = 20.3387127;
                    }
                } else {
                    if ((input[1]) >= (192.790009)) {
                        var0 = 19.2874203;
                    } else {
                        var0 = 18.3011074;
                    }
                }
            }
        } else {
            if ((input[1]) >= (150.229492)) {
                if ((input[1]) >= (165.487503)) {
                    if ((input[1]) >= (173.249496)) {
                        var0 = 17.3395367;
                    } else {
                        var0 = 16.5344906;
                    }
                } else {
                    if ((input[1]) >= (157.645508)) {
                        var0 = 15.7633915;
                    } else {
                        var0 = 15.0494938;
                    }
                }
            } else {
                if ((input[1]) >= (135.879501)) {
                    if ((input[1]) >= (143.065002)) {
                        var0 = 14.3500538;
                    } else {
                        var0 = 13.669878;
                    }
                } else {
                    if ((input[1]) >= (129.283508)) {
                        var0 = 13.0206347;
                    } else {
                        var0 = 12.4469175;
                    }
                }
            }
        }
    } else {
        if ((input[1]) >= (75.5247498)) {
            if ((input[1]) >= (99.0760956)) {
                if ((input[1]) >= (111.010498)) {
                    if ((input[1]) >= (117.704002)) {
                        var0 = 11.896142;
                    } else {
                        var0 = 11.3078785;
                    }
                } else {
                    if ((input[1]) >= (105.050003)) {
                        var0 = 10.7028351;
                    } else {
                        var0 = 10.1397276;
                    }
                }
            } else {
                if ((input[1]) >= (87.0503998)) {
                    if ((input[1]) >= (93.2429047)) {
                        var0 = 9.58427048;
                    } else {
                        var0 = 9.00102234;
                    }
                } else {
                    if ((input[1]) >= (81.3292999)) {
                        var0 = 8.42136002;
                    } else {
                        var0 = 7.85267401;
                    }
                }
            }
        } else {
            if ((input[1]) >= (49.7976494)) {
                if ((input[1]) >= (63.3745995)) {
                    if ((input[1]) >= (69.3309021)) {
                        var0 = 7.27155399;
                    } else {
                        var0 = 6.662992;
                    }
                } else {
                    if ((input[1]) >= (56.665802)) {
                        var0 = 6.03415108;
                    } else {
                        var0 = 5.35449934;
                    }
                }
            } else {
                if ((input[1]) >= (33.9794006)) {
                    if ((input[1]) >= (42.2636986)) {
                        var0 = 4.62692785;
                    } else {
                        var0 = 3.8183682;
                    }
                } else {
                    if ((input[1]) >= (23.4994507)) {
                        var0 = 2.90715241;
                    } else {
                        var0 = 1.81322086;
                    }
                }
            }
        }
    }
    float var1;
    if ((input[1]) >= (122.0215)) {
        if ((input[1]) >= (179.939499)) {
            if ((input[1]) >= (220.562012)) {
                if ((input[1]) >= (257.345001)) {
                    if ((input[1]) >= (287.705994)) {
                        var1 = 26.7037754;
                    } else {
                        var1 = 23.660635;
                    }
                } else {
                    if ((input[1]) >= (236.140991)) {
                        var1 = 21.6664104;
                    } else {
                        var1 = 20.1563625;
                    }
                }
            } else {
                if ((input[1]) >= (199.181503)) {
                    if ((input[1]) >= (208.869995)) {
                        var1 = 18.9345722;
                    } else {
                        var1 = 17.9439793;
                    }
                } else {
                    if ((input[1]) >= (189.17749)) {
                        var1 = 17.0452671;
                    } else {
                        var1 = 16.1992264;
                    }
                }
            }
        } else {
            if ((input[1]) >= (148.89151)) {
                if ((input[1]) >= (163.363495)) {
                    if ((input[1]) >= (171.402008)) {
                        var1 = 15.4155827;
                    } else {
                        var1 = 14.7086458;
                    }
                } else {
                    if ((input[1]) >= (156.102509)) {
                        var1 = 14.0154543;
                    } else {
                        var1 = 13.4308367;
                    }
                }
            } else {
                if ((input[1]) >= (134.833496)) {
                    if ((input[1]) >= (141.40451)) {
                        var1 = 12.7860565;
                    } else {
                        var1 = 12.1882715;
                    }
                } else {
                    if ((input[1]) >= (127.886505)) {
                        var1 = 11.6173544;
                    } else {
                        var1 = 11.068305;
                    }
                }
            }
        }
    } else {
        if ((input[1]) >= (73.8070526)) {
            if ((input[1]) >= (96.7165985)) {
                if ((input[1]) >= (108.580505)) {
                    if ((input[1]) >= (115.140503)) {
                        var1 = 10.5278349;
                    } else {
                        var1 = 9.95860958;
                    }
                } else {
                    if ((input[1]) >= (102.339493)) {
                        var1 = 9.41499138;
                    } else {
                        var1 = 8.90966988;
                    }
                }
            } else {
                if ((input[1]) >= (84.9262543)) {
                    if ((input[1]) >= (90.6981506)) {
                        var1 = 8.41114712;
                    } else {
                        var1 = 7.89389181;
                    }
                } else {
                    if ((input[1]) >= (79.4682007)) {
                        var1 = 7.40138197;
                    } else {
                        var1 = 6.90649939;
                    }
                }
            }
        } else {
            if ((input[1]) >= (48.3211517)) {
                if ((input[1]) >= (61.0480499)) {
                    if ((input[1]) >= (67.6831512)) {
                        var1 = 6.3942256;
                    } else {
                        var1 = 5.81725264;
                    }
                } else {
                    if ((input[1]) >= (54.4411011)) {
                        var1 = 5.22393894;
                    } else {
                        var1 = 4.64692354;
                    }
                }
            } else {
                if ((input[1]) >= (32.3647003)) {
                    if ((input[1]) >= (40.4752998)) {
                        var1 = 4.0187211;
                    } else {
                        var1 = 3.27947211;
                    }
                } else {
                    if ((input[1]) >= (20.7448006)) {
                        var1 = 2.43166161;
                    } else {
                        var1 = 1.42108238;
                    }
                }
            }
        }
    }
    float var2;
    if ((input[1]) >= (124.3815)) {
        if ((input[1]) >= (183.28949)) {
            if ((input[1]) >= (225.824005)) {
                if ((input[1]) >= (266.27301)) {
                    if ((input[0]) >= (354.372009)) {
                        var2 = 24.6819763;
                    } else {
                        var2 = 22.0389633;
                    }
                } else {
                    if ((input[1]) >= (245.422501)) {
                        var2 = 20.2089081;
                    } else {
                        var2 = 18.6453381;
                    }
                }
            } else {
                if ((input[1]) >= (205.732498)) {
                    if ((input[1]) >= (215.485001)) {
                        var2 = 17.5607319;
                    } else {
                        var2 = 16.6874638;
                    }
                } else {
                    if ((input[1]) >= (194.862)) {
                        var2 = 15.8368864;
                    } else {
                        var2 = 14.9312563;
                    }
                }
            }
        } else {
            if ((input[1]) >= (152.160995)) {
                if ((input[1]) >= (166.874512)) {
                    if ((input[1]) >= (175.553497)) {
                        var2 = 14.1831579;
                    } else {
                        var2 = 13.5337362;
                    }
                } else {
                    if ((input[1]) >= (159.37149)) {
                        var2 = 12.8979216;
                    } else {
                        var2 = 12.3198166;
                    }
                }
            } else {
                if ((input[1]) >= (138.490997)) {
                    if ((input[1]) >= (145.269501)) {
                        var2 = 11.7993984;
                    } else {
                        var2 = 11.2513304;
                    }
                } else {
                    if ((input[1]) >= (131.859497)) {
                        var2 = 10.7463579;
                    } else {
                        var2 = 10.1957054;
                    }
                }
            }
        }
    } else {
        if ((input[1]) >= (75.941452)) {
            if ((input[1]) >= (99.6367493)) {
                if ((input[1]) >= (111.667496)) {
                    if ((input[1]) >= (118.042496)) {
                        var2 = 9.66674328;
                    } else {
                        var2 = 9.19989681;
                    }
                } else {
                    if ((input[1]) >= (105.835495)) {
                        var2 = 8.72537708;
                    } else {
                        var2 = 8.26198864;
                    }
                }
            } else {
                if ((input[1]) >= (87.6404495)) {
                    if ((input[1]) >= (94.1447983)) {
                        var2 = 7.8217392;
                    } else {
                        var2 = 7.34596586;
                    }
                } else {
                    if ((input[1]) >= (82.3566513)) {
                        var2 = 6.88604593;
                    } else {
                        var2 = 6.41559839;
                    }
                }
            }
        } else {
            if ((input[1]) >= (50.6662521)) {
                if ((input[1]) >= (64.1460495)) {
                    if ((input[1]) >= (70.530899)) {
                        var2 = 5.95461607;
                    } else {
                        var2 = 5.47801876;
                    }
                } else {
                    if ((input[1]) >= (58.0860977)) {
                        var2 = 4.97717905;
                    } else {
                        var2 = 4.42673683;
                    }
                }
            } else {
                if ((input[1]) >= (35.6730995)) {
                    if ((input[1]) >= (44.0412979)) {
                        var2 = 3.85964131;
                    } else {
                        var2 = 3.23653841;
                    }
                } else {
                    if ((input[1]) >= (25.6823502)) {
                        var2 = 2.50669599;
                    } else {
                        var2 = 1.56304383;
                    }
                }
            }
        }
    }
    float var3;
    if ((input[1]) >= (121.949493)) {
        if ((input[1]) >= (180.984985)) {
            if ((input[1]) >= (223.778992)) {
                if ((input[1]) >= (264.804504)) {
                    if ((input[1]) >= (299.335022)) {
                        var3 = 22.3794651;
                    } else {
                        var3 = 19.8044739;
                    }
                } else {
                    if ((input[1]) >= (241.662994)) {
                        var3 = 17.9832821;
                    } else {
                        var3 = 16.6013966;
                    }
                }
            } else {
                if ((input[1]) >= (200.309509)) {
                    if ((input[1]) >= (211.238998)) {
                        var3 = 15.5649672;
                    } else {
                        var3 = 14.6641741;
                    }
                } else {
                    if ((input[1]) >= (190.336502)) {
                        var3 = 13.897646;
                    } else {
                        var3 = 13.2002077;
                    }
                }
            }
        } else {
            if ((input[1]) >= (149.154999)) {
                if ((input[1]) >= (164.144012)) {
                    if ((input[1]) >= (172.104492)) {
                        var3 = 12.5572643;
                    } else {
                        var3 = 11.9665432;
                    }
                } else {
                    if ((input[1]) >= (157.39151)) {
                        var3 = 11.4306145;
                    } else {
                        var3 = 10.929883;
                    }
                }
            } else {
                if ((input[1]) >= (134.319504)) {
                    if ((input[1]) >= (140.7155)) {
                        var3 = 10.3440905;
                    } else {
                        var3 = 9.83052731;
                    }
                } else {
                    if ((input[1]) >= (128.051498)) {
                        var3 = 9.39999771;
                    } else {
                        var3 = 8.9669714;
                    }
                }
            }
        }
    } else {
        if ((input[1]) >= (73.0771027)) {
            if ((input[1]) >= (96.1376495)) {
                if ((input[1]) >= (108.244003)) {
                    if ((input[1]) >= (114.516495)) {
                        var3 = 8.50556183;
                    } else {
                        var3 = 8.03143597;
                    }
                } else {
                    if ((input[1]) >= (101.606003)) {
                        var3 = 7.5920639;
                    } else {
                        var3 = 7.17058802;
                    }
                }
            } else {
                if ((input[1]) >= (84.1715469)) {
                    if ((input[1]) >= (90.152298)) {
                        var3 = 6.77601957;
                    } else {
                        var3 = 6.34757376;
                    }
                } else {
                    if ((input[1]) >= (78.3677979)) {
                        var3 = 5.93156004;
                    } else {
                        var3 = 5.5272193;
                    }
                }
            }
        } else {
            if ((input[1]) >= (46.8236504)) {
                if ((input[1]) >= (59.990303)) {
                    if ((input[1]) >= (66.4117508)) {
                        var3 = 5.10920286;
                    } else {
                        var3 = 4.62426662;
                    }
                } else {
                    if ((input[1]) >= (53.2481499)) {
                        var3 = 4.1489439;
                    } else {
                        var3 = 3.66372108;
                    }
                }
            } else {
                if ((input[1]) >= (30.4648514)) {
                    if ((input[1]) >= (38.4291496)) {
                        var3 = 3.12310052;
                    } else {
                        var3 = 2.5124867;
                    }
                } else {
                    if ((input[1]) >= (18.4856491)) {
                        var3 = 1.83329618;
                    } else {
                        var3 = 0.963249147;
                    }
                }
            }
        }
    }
    float var4;
    if ((input[1]) >= (125.223)) {
        if ((input[1]) >= (184.64151)) {
            if ((input[1]) >= (228.999512)) {
                if ((input[1]) >= (274.576508)) {
                    if ((input[1]) >= (308.832001)) {
                        var4 = 20.8185654;
                    } else {
                        var4 = 18.4712734;
                    }
                } else {
                    if ((input[1]) >= (248.195007)) {
                        var4 = 16.6398411;
                    } else {
                        var4 = 15.3124638;
                    }
                }
            } else {
                if ((input[1]) >= (205.850494)) {
                    if ((input[1]) >= (217.037003)) {
                        var4 = 14.3667555;
                    } else {
                        var4 = 13.5694571;
                    }
                } else {
                    if ((input[1]) >= (196.162994)) {
                        var4 = 12.88342;
                    } else {
                        var4 = 12.1844378;
                    }
                }
            }
        } else {
            if ((input[1]) >= (152.877502)) {
                if ((input[1]) >= (168.717499)) {
                    if ((input[1]) >= (177.248505)) {
                        var4 = 11.585825;
                    } else {
                        var4 = 11.0717859;
                    }
                } else {
                    if ((input[1]) >= (161.013504)) {
                        var4 = 10.555932;
                    } else {
                        var4 = 10.04877;
                    }
                }
            } else {
                if ((input[1]) >= (139.000504)) {
                    if ((input[1]) >= (146.374496)) {
                        var4 = 9.61780071;
                    } else {
                        var4 = 9.15830517;
                    }
                } else {
                    if ((input[1]) >= (132.2435)) {
                        var4 = 8.73161888;
                    } else {
                        var4 = 8.30213737;
                    }
                }
            }
        }
    } else {
        if ((input[1]) >= (76.9356003)) {
            if ((input[1]) >= (100.071503)) {
                if ((input[1]) >= (112.780502)) {
                    if ((input[1]) >= (119.347)) {
                        var4 = 7.90088892;
                    } else {
                        var4 = 7.52588511;
                    }
                } else {
                    if ((input[1]) >= (106.068497)) {
                        var4 = 7.10784149;
                    } else {
                        var4 = 6.71385431;
                    }
                }
            } else {
                if ((input[1]) >= (88.542099)) {
                    if ((input[1]) >= (94.6044998)) {
                        var4 = 6.36246824;
                    } else {
                        var4 = 5.99487257;
                    }
                } else {
                    if ((input[1]) >= (83.0278015)) {
                        var4 = 5.62720251;
                    } else {
                        var4 = 5.25253344;
                    }
                }
            }
        } else {
            if ((input[1]) >= (51.4789009)) {
                if ((input[1]) >= (65.0768433)) {
                    if ((input[1]) >= (71.3222961)) {
                        var4 = 4.87712908;
                    } else {
                        var4 = 4.49101496;
                    }
                } else {
                    if ((input[1]) >= (58.72715)) {
                        var4 = 4.07846594;
                    } else {
                        var4 = 3.63307071;
                    }
                }
            } else {
                if ((input[1]) >= (36.5112534)) {
                    if ((input[1]) >= (44.7073975)) {
                        var4 = 3.1718328;
                    } else {
                        var4 = 2.67056417;
                    }
                } else {
                    if ((input[1]) >= (26.4935989)) {
                        var4 = 2.08507133;
                    } else {
                        var4 = 1.28426492;
                    }
                }
            }
        }
    }
    float var5;
    if ((input[1]) >= (123.138504)) {
        if ((input[1]) >= (181.877014)) {
            if ((input[1]) >= (227.165009)) {
                if ((input[1]) >= (271.169983)) {
                    if ((input[1]) >= (304.252014)) {
                        var5 = 18.5284443;
                    } else {
                        var5 = 16.4135876;
                    }
                } else {
                    if ((input[1]) >= (246.709)) {
                        var5 = 14.8645315;
                    } else {
                        var5 = 13.6813498;
                    }
                }
            } else {
                if ((input[1]) >= (203.110001)) {
                    if ((input[1]) >= (214.580505)) {
                        var5 = 12.8099718;
                    } else {
                        var5 = 12.0499945;
                    }
                } else {
                    if ((input[1]) >= (191.737488)) {
                        var5 = 11.3802624;
                    } else {
                        var5 = 10.7555799;
                    }
                }
            }
        } else {
            if ((input[1]) >= (149.940491)) {
                if ((input[1]) >= (166.28949)) {
                    if ((input[0]) >= (203.135498)) {
                        var5 = 10.4413338;
                    } else {
                        var5 = 9.89434528;
                    }
                } else {
                    if ((input[1]) >= (158.851501)) {
                        var5 = 9.37016201;
                    } else {
                        var5 = 8.90824413;
                    }
                }
            } else {
                if ((input[1]) >= (136.566986)) {
                    if ((input[1]) >= (144.162994)) {
                        var5 = 8.5127964;
                    } else {
                        var5 = 8.11647701;
                    }
                } else {
                    if ((input[1]) >= (129.849503)) {
                        var5 = 7.72620392;
                    } else {
                        var5 = 7.338624;
                    }
                }
            }
        }
    } else {
        if ((input[1]) >= (74.4812012)) {
            if ((input[1]) >= (97.5318985)) {
                if ((input[1]) >= (110.027496)) {
                    if ((input[1]) >= (115.804504)) {
                        var5 = 6.95973539;
                    } else {
                        var5 = 6.59646702;
                    }
                } else {
                    if ((input[1]) >= (103.645004)) {
                        var5 = 6.25933647;
                    } else {
                        var5 = 5.90211678;
                    }
                }
            } else {
                if ((input[1]) >= (85.8235474)) {
                    if ((input[1]) >= (91.9322968)) {
                        var5 = 5.58356333;
                    } else {
                        var5 = 5.2373867;
                    }
                } else {
                    if ((input[1]) >= (79.7906036)) {
                        var5 = 4.89369535;
                    } else {
                        var5 = 4.55459309;
                    }
                }
            }
        } else {
            if ((input[1]) >= (48.6507492)) {
                if ((input[1]) >= (62.0931015)) {
                    if ((input[1]) >= (68.5622559)) {
                        var5 = 4.24548674;
                    } else {
                        var5 = 3.87457395;
                    }
                } else {
                    if ((input[1]) >= (55.4261475)) {
                        var5 = 3.48994803;
                    } else {
                        var5 = 3.08192325;
                    }
                }
            } else {
                if ((input[1]) >= (31.5402508)) {
                    if ((input[1]) >= (41.2021484)) {
                        var5 = 2.67293835;
                    } else {
                        var5 = 2.15209937;
                    }
                } else {
                    if ((input[0]) >= (21.558651)) {
                        var5 = 1.52251554;
                    } else {
                        var5 = 0.717582345;
                    }
                }
            }
        }
    }
    float var6;
    if ((input[1]) >= (121.483505)) {
        if ((input[1]) >= (179.07251)) {
            if ((input[1]) >= (219.3815)) {
                if ((input[1]) >= (254.501999)) {
                    if ((input[1]) >= (282.394501)) {
                        var6 = 15.737689;
                    } else {
                        var6 = 13.8198795;
                    }
                } else {
                    if ((input[1]) >= (233.498993)) {
                        var6 = 12.6827211;
                    } else {
                        var6 = 11.7875433;
                    }
                }
            } else {
                if ((input[1]) >= (197.7565)) {
                    if ((input[0]) >= (239.803009)) {
                        var6 = 11.257843;
                    } else {
                        var6 = 10.623455;
                    }
                } else {
                    if ((input[1]) >= (187.303497)) {
                        var6 = 9.98192024;
                    } else {
                        var6 = 9.49100018;
                    }
                }
            }
        } else {
            if ((input[1]) >= (147.488007)) {
                if ((input[1]) >= (162.385498)) {
                    if ((input[1]) >= (169.877991)) {
                        var6 = 9.04970074;
                    } else {
                        var6 = 8.6158514;
                    }
                } else {
                    if ((input[0]) >= (174.037994)) {
                        var6 = 8.29220676;
                    } else {
                        var6 = 7.88515091;
                    }
                }
            } else {
                if ((input[1]) >= (133.535492)) {
                    if ((input[7]) >= (31529.3008)) {
                        var6 = 7.53281021;
                    } else {
                        var6 = 7.13873053;
                    }
                } else {
                    if ((input[7]) >= (19408.4492)) {
                        var6 = 6.80610514;
                    } else {
                        var6 = 6.41860294;
                    }
                }
            }
        }
    } else {
        if ((input[1]) >= (72.6647034)) {
            if ((input[1]) >= (95.2267456)) {
                if ((input[1]) >= (107.492493)) {
                    if ((input[1]) >= (113.486)) {
                        var6 = 6.16491365;
                    } else {
                        var6 = 5.8143878;
                    }
                } else {
                    if ((input[1]) >= (101.208496)) {
                        var6 = 5.5026679;
                    } else {
                        var6 = 5.19442511;
                    }
                }
            } else {
                if ((input[1]) >= (83.5408478)) {
                    if ((input[1]) >= (89.2281494)) {
                        var6 = 4.89124966;
                    } else {
                        var6 = 4.58641768;
                    }
                } else {
                    if ((input[1]) >= (78.1351013)) {
                        var6 = 4.30147552;
                    } else {
                        var6 = 4.0137434;
                    }
                }
            }
        } else {
            if ((input[1]) >= (46.5484467)) {
                if ((input[1]) >= (59.6346512)) {
                    if ((input[1]) >= (66.272995)) {
                        var6 = 3.70784879;
                    } else {
                        var6 = 3.35770416;
                    }
                } else {
                    if ((input[1]) >= (53.4782486)) {
                        var6 = 3.02078462;
                    } else {
                        var6 = 2.67014003;
                    }
                }
            } else {
                if ((input[1]) >= (29.4949493)) {
                    if ((input[1]) >= (38.8560028)) {
                        var6 = 2.27927542;
                    } else {
                        var6 = 1.82757568;
                    }
                } else {
                    if ((input[1]) >= (16.5473499)) {
                        var6 = 1.27472615;
                    } else {
                        var6 = 0.50822264;
                    }
                }
            }
        }
    }
    float var7;
    if ((input[1]) >= (125.457504)) {
        if ((input[1]) >= (185.834503)) {
            if ((input[1]) >= (231.687012)) {
                if ((input[1]) >= (275.760986)) {
                    if ((input[1]) >= (310.21701)) {
                        var7 = 15.4226427;
                    } else {
                        var7 = 13.5219297;
                    }
                } else {
                    if ((input[1]) >= (250.704498)) {
                        var7 = 12.2262001;
                    } else {
                        var7 = 11.2896986;
                    }
                }
            } else {
                if ((input[1]) >= (207.240509)) {
                    if ((input[1]) >= (217.661987)) {
                        var7 = 10.5414152;
                    } else {
                        var7 = 9.9662199;
                    }
                } else {
                    if ((input[0]) >= (227.412003)) {
                        var7 = 9.59848881;
                    } else {
                        var7 = 9.00551605;
                    }
                }
            }
        } else {
            if ((input[1]) >= (153.857498)) {
                if ((input[1]) >= (168.717499)) {
                    if ((input[0]) >= (206.1465)) {
                        var7 = 8.62951565;
                    } else {
                        var7 = 8.13464642;
                    }
                } else {
                    if ((input[7]) >= (41985.6992)) {
                        var7 = 7.86050272;
                    } else {
                        var7 = 7.42154074;
                    }
                }
            } else {
                if ((input[1]) >= (139.8405)) {
                    if ((input[7]) >= (29787.6992)) {
                        var7 = 7.09227753;
                    } else {
                        var7 = 6.71197128;
                    }
                } else {
                    if ((input[7]) >= (40982.3008)) {
                        var7 = 6.42013788;
                    } else {
                        var7 = 6.07428551;
                    }
                }
            }
        }
    } else {
        if ((input[1]) >= (76.6287537)) {
            if ((input[1]) >= (100.770004)) {
                if ((input[1]) >= (112.244507)) {
                    if ((input[7]) >= (19323.0508)) {
                        var7 = 5.69640827;
                    } else {
                        var7 = 5.36327076;
                    }
                } else {
                    if ((input[1]) >= (106.269501)) {
                        var7 = 5.1741519;
                    } else {
                        var7 = 4.91720533;
                    }
                }
            } else {
                if ((input[1]) >= (88.9006958)) {
                    if ((input[1]) >= (94.3307037)) {
                        var7 = 4.64678144;
                    } else {
                        var7 = 4.37368345;
                    }
                } else {
                    if ((input[1]) >= (81.9391479)) {
                        var7 = 4.08496809;
                    } else {
                        var7 = 3.79355097;
                    }
                }
            }
        } else {
            if ((input[1]) >= (51.8278008)) {
                if ((input[1]) >= (64.8798523)) {
                    if ((input[1]) >= (70.7908936)) {
                        var7 = 3.53925252;
                    } else {
                        var7 = 3.25693703;
                    }
                } else {
                    if ((input[1]) >= (57.6971512)) {
                        var7 = 2.94667411;
                    } else {
                        var7 = 2.63345933;
                    }
                }
            } else {
                if ((input[1]) >= (34.9556999)) {
                    if ((input[1]) >= (43.5402489)) {
                        var7 = 2.29640293;
                    } else {
                        var7 = 1.87810159;
                    }
                } else {
                    if ((input[1]) >= (22.1188011)) {
                        var7 = 1.39450336;
                    } else {
                        var7 = 0.738771915;
                    }
                }
            }
        }
    }
    float var8;
    if ((input[1]) >= (120.573997)) {
        if ((input[1]) >= (178.173996)) {
            if ((input[1]) >= (221.598495)) {
                if ((input[1]) >= (259.130981)) {
                    if ((input[0]) >= (349.346008)) {
                        var8 = 13.1002655;
                    } else {
                        var8 = 11.456831;
                    }
                } else {
                    if ((input[1]) >= (237.720001)) {
                        var8 = 10.4730415;
                    } else {
                        var8 = 9.67269802;
                    }
                }
            } else {
                if ((input[1]) >= (197.877991)) {
                    if ((input[1]) >= (211.028992)) {
                        var8 = 9.16123295;
                    } else {
                        var8 = 8.60436249;
                    }
                } else {
                    if ((input[0]) >= (219.32901)) {
                        var8 = 8.28195286;
                    } else {
                        var8 = 7.76239109;
                    }
                }
            }
        } else {
            if ((input[1]) >= (146.574493)) {
                if ((input[1]) >= (161.599503)) {
                    if ((input[6]) >= (209.627991)) {
                        var8 = 7.32244349;
                    } else {
                        var8 = 6.95998621;
                    }
                } else {
                    if ((input[7]) >= (31697.4004)) {
                        var8 = 6.71300888;
                    } else {
                        var8 = 6.35193825;
                    }
                }
            } else {
                if ((input[1]) >= (131.325012)) {
                    if ((input[0]) >= (156.384491)) {
                        var8 = 6.09165287;
                    } else {
                        var8 = 5.74528837;
                    }
                } else {
                    if ((input[5]) >= (30.1687508)) {
                        var8 = 5.46398544;
                    } else {
                        var8 = 5.13031721;
                    }
                }
            }
        }
    } else {
        if ((input[1]) >= (72.2870026)) {
            if ((input[1]) >= (95.6638031)) {
                if ((input[1]) >= (107.492493)) {
                    if ((input[5]) >= (29.9437504)) {
                        var8 = 4.93946743;
                    } else {
                        var8 = 4.64360762;
                    }
                } else {
                    if ((input[1]) >= (102.900497)) {
                        var8 = 4.49940681;
                    } else {
                        var8 = 4.24758196;
                    }
                }
            } else {
                if ((input[1]) >= (84.5001068)) {
                    if ((input[1]) >= (91.2482986)) {
                        var8 = 4.02226448;
                    } else {
                        var8 = 3.77522016;
                    }
                } else {
                    if ((input[1]) >= (78.915451)) {
                        var8 = 3.52035451;
                    } else {
                        var8 = 3.26004982;
                    }
                }
            }
        } else {
            if ((input[1]) >= (46.1154022)) {
                if ((input[1]) >= (60.4376526)) {
                    if ((input[1]) >= (66.9123535)) {
                        var8 = 3.00820398;
                    } else {
                        var8 = 2.75174022;
                    }
                } else {
                    if ((input[1]) >= (53.9766502)) {
                        var8 = 2.47407126;
                    } else {
                        var8 = 2.16883063;
                    }
                }
            } else {
                if ((input[1]) >= (28.7330017)) {
                    if ((input[1]) >= (37.6588516)) {
                        var8 = 1.81333256;
                    } else {
                        var8 = 1.44105697;
                    }
                } else {
                    if ((input[1]) >= (15.1685505)) {
                        var8 = 0.990676999;
                    } else {
                        var8 = 0.291290671;
                    }
                }
            }
        }
    }
    float var9;
    if ((input[1]) >= (126.140999)) {
        if ((input[1]) >= (186.36499)) {
            if ((input[1]) >= (230.0905)) {
                if ((input[1]) >= (276.819)) {
                    if ((input[1]) >= (313.205017)) {
                        var9 = 12.7661161;
                    } else {
                        var9 = 11.0336657;
                    }
                } else {
                    if ((input[1]) >= (250.6875)) {
                        var9 = 9.91532707;
                    } else {
                        var9 = 9.10591698;
                    }
                }
            } else {
                if ((input[1]) >= (206.476013)) {
                    if ((input[6]) >= (308.053528)) {
                        var9 = 9.19412231;
                    } else {
                        var9 = 8.19313049;
                    }
                } else {
                    if ((input[0]) >= (229.788513)) {
                        var9 = 7.81880713;
                    } else {
                        var9 = 7.30510426;
                    }
                }
            }
        } else {
            if ((input[1]) >= (154.226013)) {
                if ((input[1]) >= (170.401489)) {
                    if ((input[6]) >= (221.671997)) {
                        var9 = 6.95926237;
                    } else {
                        var9 = 6.58177042;
                    }
                } else {
                    if ((input[0]) >= (186.3685)) {
                        var9 = 6.41946411;
                    } else {
                        var9 = 6.02317524;
                    }
                }
            } else {
                if ((input[1]) >= (141.740509)) {
                    if ((input[5]) >= (30.4843998)) {
                        var9 = 5.79089928;
                    } else {
                        var9 = 5.45731306;
                    }
                } else {
                    if ((input[5]) >= (30.5156002)) {
                        var9 = 5.23095083;
                    } else {
                        var9 = 4.91912222;
                    }
                }
            }
        }
    } else {
        if ((input[1]) >= (77.2976532)) {
            if ((input[1]) >= (100.0345)) {
                if ((input[1]) >= (112.865494)) {
                    if ((input[7]) >= (41254.75)) {
                        var9 = 4.68269682;
                    } else {
                        var9 = 4.41163921;
                    }
                } else {
                    if ((input[7]) >= (19145.8984)) {
                        var9 = 4.13925743;
                    } else {
                        var9 = 3.86400723;
                    }
                }
            } else {
                if ((input[1]) >= (87.8390045)) {
                    if ((input[1]) >= (92.7258453)) {
                        var9 = 3.72387123;
                    } else {
                        var9 = 3.49103165;
                    }
                } else {
                    if ((input[1]) >= (82.8145981)) {
                        var9 = 3.30378914;
                    } else {
                        var9 = 3.10611725;
                    }
                }
            }
        } else {
            if ((input[1]) >= (51.0374985)) {
                if ((input[1]) >= (63.8959503)) {
                    if ((input[1]) >= (70.138649)) {
                        var9 = 2.86513805;
                    } else {
                        var9 = 2.60640812;
                    }
                } else {
                    if ((input[1]) >= (57.1218491)) {
                        var9 = 2.35633373;
                    } else {
                        var9 = 2.10428357;
                    }
                }
            } else {
                if ((input[1]) >= (33.4323502)) {
                    if ((input[1]) >= (43.0772018)) {
                        var9 = 1.83737588;
                    } else {
                        var9 = 1.48334944;
                    }
                } else {
                    if ((input[1]) >= (19.9384003)) {
                        var9 = 1.06638038;
                    } else {
                        var9 = 0.504752517;
                    }
                }
            }
        }
    }
    float var10;
    if ((input[1]) >= (120.045998)) {
        if ((input[1]) >= (177.451508)) {
            if ((input[1]) >= (217.8255)) {
                if ((input[1]) >= (254.078995)) {
                    if ((input[1]) >= (283.790497)) {
                        var10 = 10.4314642;
                    } else {
                        var10 = 9.09068966;
                    }
                } else {
                    if ((input[1]) >= (235.524506)) {
                        var10 = 8.37675476;
                    } else {
                        var10 = 7.75305939;
                    }
                }
            } else {
                if ((input[1]) >= (196.732498)) {
                    if ((input[0]) >= (239.770996)) {
                        var10 = 7.40722132;
                    } else {
                        var10 = 6.9260788;
                    }
                } else {
                    if ((input[6]) >= (304.530518)) {
                        var10 = 7.03053141;
                    } else {
                        var10 = 6.30388594;
                    }
                }
            }
        } else {
            if ((input[1]) >= (144.936493)) {
                if ((input[1]) >= (159.895508)) {
                    if ((input[6]) >= (308.765503)) {
                        var10 = 6.47843409;
                    } else {
                        var10 = 5.69466066;
                    }
                } else {
                    if ((input[0]) >= (170.212494)) {
                        var10 = 5.38809538;
                    } else {
                        var10 = 5.06843328;
                    }
                }
            } else {
                if ((input[1]) >= (132.765503)) {
                    if ((input[7]) >= (41252.0508)) {
                        var10 = 4.94452429;
                    } else {
                        var10 = 4.62800646;
                    }
                } else {
                    if ((input[5]) >= (7.3953104)) {
                        var10 = 4.39705038;
                    } else {
                        var10 = 4.02937412;
                    }
                }
            }
        }
    } else {
        if ((input[1]) >= (73.201355)) {
            if ((input[1]) >= (97.2620544)) {
                if ((input[1]) >= (109.278503)) {
                    if ((input[7]) >= (19340.9492)) {
                        var10 = 4.01891184;
                    } else {
                        var10 = 3.73995662;
                    }
                } else {
                    if ((input[6]) >= (309.569)) {
                        var10 = 4.07353115;
                    } else {
                        var10 = 3.54516912;
                    }
                }
            } else {
                if ((input[1]) >= (85.7255554)) {
                    if ((input[1]) >= (91.5706482)) {
                        var10 = 3.2810998;
                    } else {
                        var10 = 3.08753538;
                    }
                } else {
                    if ((input[1]) >= (80.288147)) {
                        var10 = 2.89541411;
                    } else {
                        var10 = 2.67884445;
                    }
                }
            }
        } else {
            if ((input[1]) >= (47.6189995)) {
                if ((input[1]) >= (61.7627487)) {
                    if ((input[1]) >= (68.1087036)) {
                        var10 = 2.47598815;
                    } else {
                        var10 = 2.27601027;
                    }
                } else {
                    if ((input[1]) >= (55.0718002)) {
                        var10 = 2.04493999;
                    } else {
                        var10 = 1.80123997;
                    }
                }
            } else {
                if ((input[1]) >= (29.0573006)) {
                    if ((input[1]) >= (39.3806992)) {
                        var10 = 1.52841508;
                    } else {
                        var10 = 1.20300174;
                    }
                } else {
                    if ((input[1]) >= (14.3211498)) {
                        var10 = 0.797599733;
                    } else {
                        var10 = 0.139774844;
                    }
                }
            }
        }
    }
    float var11;
    if ((input[1]) >= (126.866501)) {
        if ((input[1]) >= (187.992493)) {
            if ((input[1]) >= (232.234009)) {
                if ((input[1]) >= (277.438507)) {
                    if ((input[0]) >= (375.371002)) {
                        var11 = 10.5630846;
                    } else {
                        var11 = 8.96177578;
                    }
                } else {
                    if ((input[6]) >= (299.355499)) {
                        var11 = 8.34316921;
                    } else {
                        var11 = 7.52687693;
                    }
                }
            } else {
                if ((input[1]) >= (210.020996)) {
                    if ((input[6]) >= (271.916992)) {
                        var11 = 7.17203379;
                    } else {
                        var11 = 6.63425016;
                    }
                } else {
                    if ((input[0]) >= (231.832001)) {
                        var11 = 6.42174768;
                    } else {
                        var11 = 5.98406172;
                    }
                }
            }
        } else {
            if ((input[1]) >= (155.5065)) {
                if ((input[1]) >= (171.872009)) {
                    if ((input[6]) >= (231.847)) {
                        var11 = 5.7279563;
                    } else {
                        var11 = 5.37064934;
                    }
                } else {
                    if ((input[7]) >= (19223.8984)) {
                        var11 = 5.21081114;
                    } else {
                        var11 = 4.88228416;
                    }
                }
            } else {
                if ((input[1]) >= (139.190002)) {
                    if ((input[0]) >= (166.532501)) {
                        var11 = 4.73274565;
                    } else {
                        var11 = 4.41720295;
                    }
                } else {
                    if ((input[7]) >= (19418.5508)) {
                        var11 = 4.21302891;
                    } else {
                        var11 = 3.93194461;
                    }
                }
            }
        }
    } else {
        if ((input[1]) >= (77.2976532)) {
            if ((input[1]) >= (103.071503)) {
                if ((input[1]) >= (115.804504)) {
                    if ((input[5]) >= (30.2749996)) {
                        var11 = 3.84999967;
                    } else {
                        var11 = 3.58998728;
                    }
                } else {
                    if ((input[6]) >= (312.352478)) {
                        var11 = 3.9986732;
                    } else {
                        var11 = 3.3734417;
                    }
                }
            } else {
                if ((input[1]) >= (89.8308487)) {
                    if ((input[1]) >= (97.4356995)) {
                        var11 = 3.11745715;
                    } else {
                        var11 = 2.92812896;
                    }
                } else {
                    if ((input[1]) >= (83.8640976)) {
                        var11 = 2.72214174;
                    } else {
                        var11 = 2.53307104;
                    }
                }
            }
        } else {
            if ((input[1]) >= (52.1190491)) {
                if ((input[1]) >= (65.4545975)) {
                    if ((input[1]) >= (71.8209)) {
                        var11 = 2.345994;
                    } else {
                        var11 = 2.16179848;
                    }
                } else {
                    if ((input[1]) >= (59.1465492)) {
                        var11 = 1.96230316;
                    } else {
                        var11 = 1.75433183;
                    }
                }
            } else {
                if ((input[1]) >= (36.7905006)) {
                    if ((input[1]) >= (45.2275505)) {
                        var11 = 1.53812778;
                    } else {
                        var11 = 1.2912662;
                    }
                } else {
                    if ((input[1]) >= (24.4406509)) {
                        var11 = 0.981823742;
                    } else {
                        var11 = 0.525050521;
                    }
                }
            }
        }
    }
    float var12;
    if ((input[1]) >= (121.115494)) {
        if ((input[1]) >= (179.295502)) {
            if ((input[1]) >= (221.598495)) {
                if ((input[1]) >= (259.969482)) {
                    if ((input[1]) >= (302.697021)) {
                        var12 = 9.06371212;
                    } else {
                        var12 = 7.65858316;
                    }
                } else {
                    if ((input[6]) >= (298.886993)) {
                        var12 = 7.15887833;
                    } else {
                        var12 = 6.43833256;
                    }
                }
            } else {
                if ((input[1]) >= (200.151489)) {
                    if ((input[6]) >= (229.17099)) {
                        var12 = 6.02275324;
                    } else {
                        var12 = 5.62304831;
                    }
                } else {
                    if ((input[0]) >= (218.515503)) {
                        var12 = 5.49914455;
                    } else {
                        var12 = 5.10889006;
                    }
                }
            }
        } else {
            if ((input[1]) >= (147.935501)) {
                if ((input[1]) >= (163.23349)) {
                    if ((input[6]) >= (302.494019)) {
                        var12 = 5.26304436;
                    } else {
                        var12 = 4.67585087;
                    }
                } else {
                    if ((input[6]) >= (213.143005)) {
                        var12 = 4.46227217;
                    } else {
                        var12 = 4.15286303;
                    }
                }
            } else {
                if ((input[1]) >= (135.546997)) {
                    if ((input[7]) >= (41252.0508)) {
                        var12 = 4.11319828;
                    } else {
                        var12 = 3.82603121;
                    }
                } else {
                    if ((input[7]) >= (41565.2031)) {
                        var12 = 3.68721652;
                    } else {
                        var12 = 3.44076276;
                    }
                }
            }
        }
    } else {
        if ((input[1]) >= (73.9692535)) {
            if ((input[1]) >= (97.6159973)) {
                if ((input[1]) >= (110.361)) {
                    if ((input[6]) >= (311.338013)) {
                        var12 = 3.82438397;
                    } else {
                        var12 = 3.20777631;
                    }
                } else {
                    if ((input[7]) >= (41540.8516)) {
                        var12 = 2.98201871;
                    } else {
                        var12 = 2.77042747;
                    }
                }
            } else {
                if ((input[1]) >= (86.3671494)) {
                    if ((input[7]) >= (109046)) {
                        var12 = 2.67587447;
                    } else {
                        var12 = 2.52217579;
                    }
                } else {
                    if ((input[1]) >= (80.6920471)) {
                        var12 = 2.3602457;
                    } else {
                        var12 = 2.18525767;
                    }
                }
            }
        } else {
            if ((input[1]) >= (49.1427994)) {
                if ((input[1]) >= (62.4125519)) {
                    if ((input[1]) >= (68.6777039)) {
                        var12 = 2.02357936;
                    } else {
                        var12 = 1.86187065;
                    }
                } else {
                    if ((input[1]) >= (55.9071007)) {
                        var12 = 1.67776859;
                    } else {
                        var12 = 1.48955393;
                    }
                }
            } else {
                if ((input[1]) >= (30.8665009)) {
                    if ((input[1]) >= (41.4043503)) {
                        var12 = 1.28977931;
                    } else {
                        var12 = 1.02435672;
                    }
                } else {
                    if ((input[0]) >= (19.5612984)) {
                        var12 = 0.699461639;
                    } else {
                        var12 = 0.196620062;
                    }
                }
            }
        }
    }
    float var13;
    if ((input[1]) >= (127.5205)) {
        if ((input[1]) >= (188.862503)) {
            if ((input[1]) >= (237.648499)) {
                if ((input[1]) >= (278.544983)) {
                    if ((input[0]) >= (378.091003)) {
                        var13 = 8.72628117;
                    } else {
                        var13 = 7.3161478;
                    }
                } else {
                    if ((input[6]) >= (236.429504)) {
                        var13 = 6.59438705;
                    } else {
                        var13 = 6.00565147;
                    }
                }
            } else {
                if ((input[1]) >= (212.391998)) {
                    if ((input[6]) >= (305.804993)) {
                        var13 = 6.25952148;
                    } else {
                        var13 = 5.51565409;
                    }
                } else {
                    if ((input[6]) >= (306.789001)) {
                        var13 = 5.59846735;
                    } else {
                        var13 = 4.92102432;
                    }
                }
            }
        } else {
            if ((input[1]) >= (155.387512)) {
                if ((input[1]) >= (174.324005)) {
                    if ((input[6]) >= (305.820984)) {
                        var13 = 5.11509466;
                    } else {
                        var13 = 4.4650526;
                    }
                } else {
                    if ((input[0]) >= (190.205505)) {
                        var13 = 4.32896614;
                    } else {
                        var13 = 3.9920392;
                    }
                }
            } else {
                if ((input[1]) >= (142.485992)) {
                    if ((input[6]) >= (306.508484)) {
                        var13 = 4.35246325;
                    } else {
                        var13 = 3.67106795;
                    }
                } else {
                    if ((input[6]) >= (309.227478)) {
                        var13 = 3.97300386;
                    } else {
                        var13 = 3.34410977;
                    }
                }
            }
        }
    } else {
        if ((input[1]) >= (77.793251)) {
            if ((input[1]) >= (104.102997)) {
                if ((input[1]) >= (116.897507)) {
                    if ((input[5]) >= (7.45156002)) {
                        var13 = 3.11097217;
                    } else {
                        var13 = 2.78922653;
                    }
                } else {
                    if ((input[5]) >= (30.28125)) {
                        var13 = 2.8499248;
                    } else {
                        var13 = 2.62639022;
                    }
                }
            } else {
                if ((input[1]) >= (91.4355011)) {
                    if ((input[6]) >= (311.031982)) {
                        var13 = 2.94178653;
                    } else {
                        var13 = 2.44669223;
                    }
                } else {
                    if ((input[1]) >= (85.3693008)) {
                        var13 = 2.23820281;
                    } else {
                        var13 = 2.07552409;
                    }
                }
            }
        } else {
            if ((input[1]) >= (52.4047012)) {
                if ((input[1]) >= (65.5982971)) {
                    if ((input[1]) >= (71.8944473)) {
                        var13 = 1.90528417;
                    } else {
                        var13 = 1.75406492;
                    }
                } else {
                    if ((input[1]) >= (59.1622009)) {
                        var13 = 1.59119833;
                    } else {
                        var13 = 1.42596984;
                    }
                }
            } else {
                if ((input[1]) >= (36.142849)) {
                    if ((input[1]) >= (45.4952011)) {
                        var13 = 1.25233698;
                    } else {
                        var13 = 1.04159856;
                    }
                } else {
                    if ((input[0]) >= (25.0512505)) {
                        var13 = 0.755242527;
                    } else {
                        var13 = 0.336140394;
                    }
                }
            }
        }
    }
    float var14;
    if ((input[1]) >= (124.541504)) {
        if ((input[1]) >= (184.64151)) {
            if ((input[1]) >= (228.347)) {
                if ((input[0]) >= (317.593994)) {
                    if ((input[6]) >= (254.438507)) {
                        var14 = 6.99289036;
                    } else {
                        var14 = 6.10307837;
                    }
                } else {
                    if ((input[0]) >= (220.205505)) {
                        var14 = 5.54575062;
                    } else {
                        var14 = 4.5275588;
                    }
                }
            } else {
                if ((input[1]) >= (204.143005)) {
                    if ((input[6]) >= (308.562012)) {
                        var14 = 5.5578475;
                    } else {
                        var14 = 4.78830767;
                    }
                } else {
                    if ((input[0]) >= (223.102997)) {
                        var14 = 4.56922674;
                    } else {
                        var14 = 4.23173475;
                    }
                }
            }
        } else {
            if ((input[1]) >= (151.194)) {
                if ((input[1]) >= (167.325012)) {
                    if ((input[6]) >= (223.209991)) {
                        var14 = 4.10467196;
                    } else {
                        var14 = 3.81312108;
                    }
                } else {
                    if ((input[7]) >= (41984.3516)) {
                        var14 = 3.80337191;
                    } else {
                        var14 = 3.46959186;
                    }
                }
            } else {
                if ((input[0]) >= (152.651001)) {
                    if ((input[6]) >= (308.082489)) {
                        var14 = 4.05494213;
                    } else {
                        var14 = 3.23429108;
                    }
                } else {
                    if ((input[7]) >= (41565.2031)) {
                        var14 = 3.10240817;
                    } else {
                        var14 = 2.86496234;
                    }
                }
            }
        }
    } else {
        if ((input[1]) >= (74.857048)) {
            if ((input[1]) >= (98.7781982)) {
                if ((input[1]) >= (110.695496)) {
                    if ((input[6]) >= (309.519501)) {
                        var14 = 3.17559934;
                    } else {
                        var14 = 2.63251305;
                    }
                } else {
                    if ((input[5]) >= (30.2250004)) {
                        var14 = 2.43157387;
                    } else {
                        var14 = 2.23480844;
                    }
                }
            } else {
                if ((input[1]) >= (86.7749481)) {
                    if ((input[7]) >= (41330.7031)) {
                        var14 = 2.16394401;
                    } else {
                        var14 = 2.0112083;
                    }
                } else {
                    if ((input[1]) >= (80.7846527)) {
                        var14 = 1.91917765;
                    } else {
                        var14 = 1.78112257;
                    }
                }
            }
        } else {
            if ((input[1]) >= (47.9945488)) {
                if ((input[1]) >= (62.4588013)) {
                    if ((input[1]) >= (68.6777039)) {
                        var14 = 1.64835167;
                    } else {
                        var14 = 1.50884378;
                    }
                } else {
                    if ((input[1]) >= (55.9031982)) {
                        var14 = 1.35898101;
                    } else {
                        var14 = 1.19456637;
                    }
                }
            } else {
                if ((input[1]) >= (28.0717506)) {
                    if ((input[1]) >= (39.5142517)) {
                        var14 = 1.0119704;
                    } else {
                        var14 = 0.787773669;
                    }
                } else {
                    if ((input[0]) >= (15.7142506)) {
                        var14 = 0.492014885;
                    } else {
                        var14 = -0.0547829159;
                    }
                }
            }
        }
    }
    float var15;
    if ((input[1]) >= (128.616501)) {
        if ((input[1]) >= (190.773987)) {
            if ((input[1]) >= (239.375)) {
                if ((input[1]) >= (280.508484)) {
                    if ((input[0]) >= (378.729004)) {
                        var15 = 7.21018076;
                    } else {
                        var15 = 5.96754408;
                    }
                } else {
                    if ((input[6]) >= (230.988998)) {
                        var15 = 5.41087675;
                    } else {
                        var15 = 4.86274719;
                    }
                }
            } else {
                if ((input[1]) >= (213.558502)) {
                    if ((input[0]) >= (210.214005)) {
                        var15 = 4.63972282;
                    } else {
                        var15 = 3.98975825;
                    }
                } else {
                    if ((input[6]) >= (307.877014)) {
                        var15 = 4.6159277;
                    } else {
                        var15 = 4.02043581;
                    }
                }
            }
        } else {
            if ((input[1]) >= (158.846497)) {
                if ((input[0]) >= (199.739502)) {
                    if ((input[6]) >= (209.953491)) {
                        var15 = 3.96304488;
                    } else {
                        var15 = 3.55676436;
                    }
                } else {
                    if ((input[1]) >= (175.455505)) {
                        var15 = 3.56688237;
                    } else {
                        var15 = 3.30911899;
                    }
                }
            } else {
                if ((input[0]) >= (161.366501)) {
                    if ((input[6]) >= (306.588501)) {
                        var15 = 3.81529689;
                    } else {
                        var15 = 3.05580497;
                    }
                } else {
                    if ((input[1]) >= (137.570999)) {
                        var15 = 2.87584019;
                    } else {
                        var15 = 2.67230558;
                    }
                }
            }
        }
    } else {
        if ((input[1]) >= (78.5923462)) {
            if ((input[1]) >= (104.263504)) {
                if ((input[1]) >= (116.711502)) {
                    if ((input[7]) >= (100209)) {
                        var15 = 2.63601089;
                    } else {
                        var15 = 2.40647411;
                    }
                } else {
                    if ((input[7]) >= (18901.4004)) {
                        var15 = 2.30329657;
                    } else {
                        var15 = 2.08218431;
                    }
                }
            } else {
                if ((input[1]) >= (92.2160034)) {
                    if ((input[7]) >= (55346.1484)) {
                        var15 = 2.07244086;
                    } else {
                        var15 = 1.90242887;
                    }
                } else {
                    if ((input[1]) >= (85.5641937)) {
                        var15 = 1.81622398;
                    } else {
                        var15 = 1.69302452;
                    }
                }
            }
        } else {
            if ((input[1]) >= (52.4792023)) {
                if ((input[1]) >= (66.638443)) {
                    if ((input[1]) >= (72.1060486)) {
                        var15 = 1.55239046;
                    } else {
                        var15 = 1.43575275;
                    }
                } else {
                    if ((input[1]) >= (60.7189026)) {
                        var15 = 1.31654;
                    } else {
                        var15 = 1.17188203;
                    }
                }
            } else {
                if ((input[1]) >= (34.407402)) {
                    if ((input[1]) >= (43.1785507)) {
                        var15 = 0.992991745;
                    } else {
                        var15 = 0.798932493;
                    }
                } else {
                    if ((input[1]) >= (22.6693001)) {
                        var15 = 0.603226066;
                    } else {
                        var15 = 0.290296286;
                    }
                }
            }
        }
    }
    float var16;
    if ((input[1]) >= (118.982498)) {
        if ((input[1]) >= (176.030502)) {
            if ((input[0]) >= (244.498993)) {
                if ((input[6]) >= (227.684998)) {
                    if ((input[0]) >= (314.330994)) {
                        var16 = 5.56170034;
                    } else {
                        var16 = 4.67461967;
                    }
                } else {
                    if ((input[0]) >= (300.936523)) {
                        var16 = 4.64221716;
                    } else {
                        var16 = 3.86912513;
                    }
                }
            } else {
                if ((input[1]) >= (195.487488)) {
                    if ((input[1]) >= (221.597992)) {
                        var16 = 4.07765007;
                    } else {
                        var16 = 3.68954921;
                    }
                } else {
                    if ((input[6]) >= (309.715515)) {
                        var16 = 3.99006724;
                    } else {
                        var16 = 3.32028437;
                    }
                }
            }
        } else {
            if ((input[1]) >= (144.609497)) {
                if ((input[0]) >= (173.522003)) {
                    if ((input[6]) >= (214.426514)) {
                        var16 = 3.23306084;
                    } else {
                        var16 = 2.88787532;
                    }
                } else {
                    if ((input[7]) >= (59970.2031)) {
                        var16 = 2.97880411;
                    } else {
                        var16 = 2.70455337;
                    }
                }
            } else {
                if ((input[0]) >= (148.44751)) {
                    if ((input[6]) >= (308.166992)) {
                        var16 = 3.32442665;
                    } else {
                        var16 = 2.53196931;
                    }
                } else {
                    if ((input[5]) >= (30.3312492)) {
                        var16 = 2.40449381;
                    } else {
                        var16 = 2.19804478;
                    }
                }
            }
        }
    } else {
        if ((input[1]) >= (71.6132507)) {
            if ((input[1]) >= (94.1447983)) {
                if ((input[1]) >= (105.4095)) {
                    if ((input[6]) >= (306.85498)) {
                        var16 = 2.43108916;
                    } else {
                        var16 = 2.03180671;
                    }
                } else {
                    if ((input[6]) >= (308.990997)) {
                        var16 = 2.22578669;
                    } else {
                        var16 = 1.81486952;
                    }
                }
            } else {
                if ((input[1]) >= (81.7709503)) {
                    if ((input[6]) >= (311.846985)) {
                        var16 = 2.00777721;
                    } else {
                        var16 = 1.6125946;
                    }
                } else {
                    if ((input[2]) >= (33.3937988)) {
                        var16 = 1.3963902;
                    } else {
                        var16 = 1.56728637;
                    }
                }
            }
        } else {
            if ((input[1]) >= (45.7487488)) {
                if ((input[1]) >= (58.8241005)) {
                    if ((input[1]) >= (64.5717468)) {
                        var16 = 1.26751983;
                    } else {
                        var16 = 1.14828229;
                    }
                } else {
                    if ((input[1]) >= (52.8390503)) {
                        var16 = 1.04051197;
                    } else {
                        var16 = 0.920026898;
                    }
                }
            } else {
                if ((input[1]) >= (27.5184002)) {
                    if ((input[1]) >= (37.6588516)) {
                        var16 = 0.777003169;
                    } else {
                        var16 = 0.616517603;
                    }
                } else {
                    if ((input[1]) >= (12.5732498)) {
                        var16 = 0.386139274;
                    } else {
                        var16 = -0.129001439;
                    }
                }
            }
        }
    }
    float var17;
    if ((input[1]) >= (128.892502)) {
        if ((input[1]) >= (190.773987)) {
            if ((input[1]) >= (242.515991)) {
                if ((input[1]) >= (295.851013)) {
                    if ((input[1]) >= (321.702515)) {
                        var17 = 6.17290545;
                    } else {
                        var17 = 5.06247473;
                    }
                } else {
                    if ((input[6]) >= (248.212494)) {
                        var17 = 4.55028248;
                    } else {
                        var17 = 4.07897377;
                    }
                }
            } else {
                if ((input[1]) >= (213.819504)) {
                    if ((input[6]) >= (300.656494)) {
                        var17 = 4.18370962;
                    } else {
                        var17 = 3.62698793;
                    }
                } else {
                    if ((input[6]) >= (211.732498)) {
                        var17 = 3.41031504;
                    } else {
                        var17 = 3.13906884;
                    }
                }
            }
        } else {
            if ((input[1]) >= (160.636993)) {
                if ((input[0]) >= (208.431503)) {
                    if ((input[6]) >= (215.682495)) {
                        var17 = 3.37207985;
                    } else {
                        var17 = 2.96130729;
                    }
                } else {
                    if ((input[7]) >= (69485.5)) {
                        var17 = 3.10948539;
                    } else {
                        var17 = 2.75022149;
                    }
                }
            } else {
                if ((input[0]) >= (163.942505)) {
                    if ((input[6]) >= (191.988495)) {
                        var17 = 2.71260238;
                    } else {
                        var17 = 2.37523627;
                    }
                } else {
                    if ((input[7]) >= (100817.5)) {
                        var17 = 2.44957423;
                    } else {
                        var17 = 2.21887589;
                    }
                }
            }
        }
    } else {
        if ((input[1]) >= (76.6287537)) {
            if ((input[1]) >= (101.925507)) {
                if ((input[1]) >= (114.945496)) {
                    if ((input[6]) >= (312.199524)) {
                        var17 = 2.5685153;
                    } else {
                        var17 = 1.97777557;
                    }
                } else {
                    if ((input[7]) >= (108162)) {
                        var17 = 1.89088619;
                    } else {
                        var17 = 1.71537459;
                    }
                }
            } else {
                if ((input[1]) >= (89.441452)) {
                    if ((input[6]) >= (311.041992)) {
                        var17 = 1.96724319;
                    } else {
                        var17 = 1.57247066;
                    }
                } else {
                    if ((input[2]) >= (38.72155)) {
                        var17 = 1.35636842;
                    } else {
                        var17 = 1.52152252;
                    }
                }
            }
        } else {
            if ((input[1]) >= (49.5158005)) {
                if ((input[1]) >= (62.8634491)) {
                    if ((input[1]) >= (69.7796478)) {
                        var17 = 1.22344208;
                    } else {
                        var17 = 1.11145771;
                    }
                } else {
                    if ((input[1]) >= (56.3575516)) {
                        var17 = 0.999047875;
                    } else {
                        var17 = 0.886051118;
                    }
                }
            } else {
                if ((input[1]) >= (28.2991505)) {
                    if ((input[1]) >= (40.9337997)) {
                        var17 = 0.76204443;
                    } else {
                        var17 = 0.5875808;
                    }
                } else {
                    if ((input[0]) >= (16.3603497)) {
                        var17 = 0.364696234;
                    } else {
                        var17 = -0.046808552;
                    }
                }
            }
        }
    }
    float var18;
    if ((input[1]) >= (130.49649)) {
        if ((input[1]) >= (194.296509)) {
            if ((input[1]) >= (243.573502)) {
                if ((input[1]) >= (293.242004)) {
                    if ((input[1]) >= (319.583984)) {
                        var18 = 5.49474382;
                    } else {
                        var18 = 4.51019382;
                    }
                } else {
                    if ((input[6]) >= (297.752014)) {
                        var18 = 4.38006353;
                    } else {
                        var18 = 3.79435277;
                    }
                }
            } else {
                if ((input[0]) >= (236.868988)) {
                    if ((input[6]) >= (244.238998)) {
                        var18 = 3.73001099;
                    } else {
                        var18 = 3.08942175;
                    }
                } else {
                    if ((input[3]) >= (167.962997)) {
                        var18 = 3.10942268;
                    } else {
                        var18 = 2.76451564;
                    }
                }
            }
        } else {
            if ((input[1]) >= (164.44751)) {
                if ((input[0]) >= (209.515991)) {
                    if ((input[6]) >= (200.573502)) {
                        var18 = 3.04454064;
                    } else {
                        var18 = 2.65552616;
                    }
                } else {
                    if ((input[6]) >= (309.937988)) {
                        var18 = 3.0655458;
                    } else {
                        var18 = 2.53423643;
                    }
                }
            } else {
                if ((input[0]) >= (164.546005)) {
                    if ((input[6]) >= (308.213989)) {
                        var18 = 2.99624467;
                    } else {
                        var18 = 2.28201032;
                    }
                } else {
                    if ((input[7]) >= (41547)) {
                        var18 = 2.19433045;
                    } else {
                        var18 = 2.00125885;
                    }
                }
            }
        }
    } else {
        if ((input[1]) >= (79.2328949)) {
            if ((input[1]) >= (104.637497)) {
                if ((input[1]) >= (116.897507)) {
                    if ((input[5]) >= (7.44687462)) {
                        var18 = 1.85842121;
                    } else {
                        var18 = 1.6058588;
                    }
                } else {
                    if ((input[5]) >= (61.0812492)) {
                        var18 = 1.76599145;
                    } else {
                        var18 = 1.58526647;
                    }
                }
            } else {
                if ((input[1]) >= (92.2959518)) {
                    if ((input[5]) >= (60.96875)) {
                        var18 = 1.57297218;
                    } else {
                        var18 = 1.41274774;
                    }
                } else {
                    if ((input[2]) >= (46.081749)) {
                        var18 = 1.25662923;
                    } else {
                        var18 = 1.39437389;
                    }
                }
            }
        } else {
            if ((input[1]) >= (50.4547501)) {
                if ((input[1]) >= (66.991806)) {
                    if ((input[2]) >= (36.7571487)) {
                        var18 = 1.07366228;
                    } else {
                        var18 = 1.20334971;
                    }
                } else {
                    if ((input[1]) >= (58.3504486)) {
                        var18 = 0.943625093;
                    } else {
                        var18 = 0.822034955;
                    }
                }
            } else {
                if ((input[1]) >= (32.8681488)) {
                    if ((input[1]) >= (41.9420471)) {
                        var18 = 0.70013386;
                    } else {
                        var18 = 0.562363446;
                    }
                } else {
                    if ((input[0]) >= (23.1123009)) {
                        var18 = 0.407294273;
                    } else {
                        var18 = 0.137496114;
                    }
                }
            }
        }
    }
    float var19;
    if ((input[1]) >= (129.492996)) {
        if ((input[1]) >= (184.932495)) {
            if ((input[1]) >= (228.235992)) {
                if ((input[0]) >= (319.838501)) {
                    if ((input[0]) >= (368.747498)) {
                        var19 = 4.6299572;
                    } else {
                        var19 = 3.82161951;
                    }
                } else {
                    if ((input[6]) >= (306.015503)) {
                        var19 = 3.81216812;
                    } else {
                        var19 = 3.18645406;
                    }
                }
            } else {
                if ((input[1]) >= (204.897003)) {
                    if ((input[6]) >= (308.562012)) {
                        var19 = 3.42861867;
                    } else {
                        var19 = 2.82653761;
                    }
                } else {
                    if ((input[6]) >= (309.677979)) {
                        var19 = 3.079216;
                    } else {
                        var19 = 2.52891731;
                    }
                }
            }
        } else {
            if ((input[1]) >= (152.519501)) {
                if ((input[0]) >= (195.369995)) {
                    if ((input[27]) >= (0.5)) {
                        var19 = 3.34260368;
                    } else {
                        var19 = 2.39834714;
                    }
                } else {
                    if ((input[6]) >= (311.632019)) {
                        var19 = 2.68558836;
                    } else {
                        var19 = 2.13804698;
                    }
                }
            } else {
                if ((input[6]) >= (312.310974)) {
                    if ((input[0]) >= (171.386002)) {
                        var19 = 2.94738293;
                    } else {
                        var19 = 2.31229901;
                    }
                } else {
                    if ((input[5]) >= (30.4843998)) {
                        var19 = 1.93384898;
                    } else {
                        var19 = 1.75000763;
                    }
                }
            }
        }
    } else {
        if ((input[1]) >= (77.3840027)) {
            if ((input[1]) >= (103.545502)) {
                if ((input[6]) >= (309.080505)) {
                    if ((input[0]) >= (135.825012)) {
                        var19 = 2.40729165;
                    } else {
                        var19 = 1.84547842;
                    }
                } else {
                    if ((input[1]) >= (114.192505)) {
                        var19 = 1.5964843;
                    } else {
                        var19 = 1.43770409;
                    }
                }
            } else {
                if ((input[1]) >= (88.3762054)) {
                    if ((input[7]) >= (30992.4492)) {
                        var19 = 1.32954323;
                    } else {
                        var19 = 1.17903328;
                    }
                } else {
                    if ((input[2]) >= (37.2617493)) {
                        var19 = 1.09547007;
                    } else {
                        var19 = 1.23899019;
                    }
                }
            }
        } else {
            if ((input[1]) >= (49.1501503)) {
                if ((input[1]) >= (62.6348)) {
                    if ((input[1]) >= (69.8638992)) {
                        var19 = 0.996440887;
                    } else {
                        var19 = 0.898915589;
                    }
                } else {
                    if ((input[1]) >= (54.6874504)) {
                        var19 = 0.796761394;
                    } else {
                        var19 = 0.701231778;
                    }
                }
            } else {
                if ((input[1]) >= (27.7204494)) {
                    if ((input[1]) >= (39.3654022)) {
                        var19 = 0.604926527;
                    } else {
                        var19 = 0.461915225;
                    }
                } else {
                    if ((input[0]) >= (13.8501997)) {
                        var19 = 0.279491365;
                    } else {
                        var19 = -0.17421706;
                    }
                }
            }
        }
    }
    float var20;
    if ((input[0]) >= (139.868011)) {
        if ((input[0]) >= (199.764008)) {
            if ((input[0]) >= (249.673492)) {
                if ((input[6]) >= (217.707489)) {
                    if ((input[0]) >= (322.977478)) {
                        var20 = 3.74407005;
                    } else {
                        var20 = 3.17042828;
                    }
                } else {
                    if ((input[0]) >= (302.843018)) {
                        var20 = 3.01633501;
                    } else {
                        var20 = 2.50319576;
                    }
                }
            } else {
                if ((input[6]) >= (185.985992)) {
                    if ((input[0]) >= (220.559998)) {
                        var20 = 2.6901207;
                    } else {
                        var20 = 2.39428329;
                    }
                } else {
                    if ((input[22]) >= (0.5)) {
                        var20 = 2.46753001;
                    } else {
                        var20 = 2.10295653;
                    }
                }
            }
        } else {
            if ((input[0]) >= (169.770004)) {
                if ((input[6]) >= (194.307007)) {
                    if ((input[6]) >= (311.001007)) {
                        var20 = 2.55118299;
                    } else {
                        var20 = 2.10950685;
                    }
                } else {
                    if ((input[1]) >= (167.009995)) {
                        var20 = 2.04815364;
                    } else {
                        var20 = 1.76291811;
                    }
                }
            } else {
                if ((input[6]) >= (141.602997)) {
                    if ((input[6]) >= (312.497986)) {
                        var20 = 2.24937916;
                    } else {
                        var20 = 1.73994339;
                    }
                } else {
                    if ((input[1]) >= (145.657501)) {
                        var20 = 1.68128073;
                    } else {
                        var20 = 1.50671709;
                    }
                }
            }
        }
    } else {
        if ((input[1]) >= (74.7745514)) {
            if ((input[1]) >= (98.4055481)) {
                if ((input[1]) >= (111.275497)) {
                    if ((input[7]) >= (41366.8516)) {
                        var20 = 1.52350748;
                    } else {
                        var20 = 1.33673489;
                    }
                } else {
                    if ((input[5]) >= (7.28750038)) {
                        var20 = 1.28256023;
                    } else {
                        var20 = 1.00596988;
                    }
                }
            } else {
                if ((input[1]) >= (86.3671494)) {
                    if ((input[6]) >= (312.510986)) {
                        var20 = 1.46675265;
                    } else {
                        var20 = 1.10737562;
                    }
                } else {
                    if ((input[2]) >= (35.8940964)) {
                        var20 = 0.958270371;
                    } else {
                        var20 = 1.0914228;
                    }
                }
            }
        } else {
            if ((input[1]) >= (47.3185501)) {
                if ((input[1]) >= (61.8668518)) {
                    if ((input[2]) >= (34.3115997)) {
                        var20 = 0.811205029;
                    } else {
                        var20 = 0.92240268;
                    }
                } else {
                    if ((input[1]) >= (54.6874504)) {
                        var20 = 0.711256444;
                    } else {
                        var20 = 0.624649823;
                    }
                }
            } else {
                if ((input[1]) >= (27.1168003)) {
                    if ((input[1]) >= (38.0335007)) {
                        var20 = 0.522350729;
                    } else {
                        var20 = 0.402806103;
                    }
                } else {
                    if ((input[1]) >= (11.6903)) {
                        var20 = 0.243346408;
                    } else {
                        var20 = -0.165909514;
                    }
                }
            }
        }
    }
    float var21;
    if ((input[1]) >= (131.15451)) {
        if ((input[1]) >= (194.296509)) {
            if ((input[1]) >= (244.430511)) {
                if ((input[6]) >= (265.834473)) {
                    if ((input[1]) >= (307.289978)) {
                        var21 = 3.85939837;
                    } else {
                        var21 = 3.13859344;
                    }
                } else {
                    if ((input[0]) >= (320.386505)) {
                        var21 = 2.97318339;
                    } else {
                        var21 = 2.60310411;
                    }
                }
            } else {
                if ((input[3]) >= (167.962997)) {
                    if ((input[6]) >= (227.440506)) {
                        var21 = 2.53495002;
                    } else {
                        var21 = 2.18624187;
                    }
                } else {
                    if ((input[5]) >= (7.51640511)) {
                        var21 = 2.88964319;
                    } else {
                        var21 = 1.94389617;
                    }
                }
            }
        } else {
            if ((input[0]) >= (178.49649)) {
                if ((input[6]) >= (234.2155)) {
                    if ((input[27]) >= (0.5)) {
                        var21 = 2.59807777;
                    } else {
                        var21 = 2.03142881;
                    }
                } else {
                    if ((input[1]) >= (174.183014)) {
                        var21 = 1.92733276;
                    } else {
                        var21 = 1.70174062;
                    }
                }
            } else {
                if ((input[1]) >= (144.362488)) {
                    if ((input[4]) >= (1732.75)) {
                        var21 = 1.84058702;
                    } else {
                        var21 = 1.61558402;
                    }
                } else {
                    if ((input[7]) >= (110196)) {
                        var21 = 1.64294302;
                    } else {
                        var21 = 1.42548406;
                    }
                }
            }
        }
    } else {
        if ((input[1]) >= (80.2606049)) {
            if ((input[1]) >= (106.269501)) {
                if ((input[5]) >= (61.0812492)) {
                    if ((input[5]) >= (84.1125031)) {
                        var21 = 1.2834146;
                    } else {
                        var21 = 1.47685373;
                    }
                } else {
                    if ((input[0]) >= (135.709503)) {
                        var21 = 1.34261882;
                    } else {
                        var21 = 1.17347419;
                    }
                }
            } else {
                if ((input[1]) >= (92.8862457)) {
                    if ((input[6]) >= (314.157501)) {
                        var21 = 1.53593218;
                    } else {
                        var21 = 1.07101667;
                    }
                } else {
                    if ((input[6]) >= (308.466492)) {
                        var21 = 1.21167743;
                    } else {
                        var21 = 0.934251606;
                    }
                }
            }
        } else {
            if ((input[1]) >= (52.8048477)) {
                if ((input[1]) >= (67.888649)) {
                    if ((input[6]) >= (311.312012)) {
                        var21 = 1.15918767;
                    } else {
                        var21 = 0.805519521;
                    }
                } else {
                    if ((input[1]) >= (61.4697495)) {
                        var21 = 0.706598341;
                    } else {
                        var21 = 0.627788007;
                    }
                }
            } else {
                if ((input[1]) >= (34.5413513)) {
                    if ((input[1]) >= (44.9983978)) {
                        var21 = 0.541728735;
                    } else {
                        var21 = 0.435775131;
                    }
                } else {
                    if ((input[0]) >= (23.4102516)) {
                        var21 = 0.310108542;
                    } else {
                        var21 = 0.091224663;
                    }
                }
            }
        }
    }
    float var22;
    if ((input[1]) >= (123.138504)) {
        if ((input[0]) >= (192.740509)) {
            if ((input[0]) >= (247.638504)) {
                if ((input[6]) >= (254.156006)) {
                    if ((input[0]) >= (294.784485)) {
                        var22 = 3.04760098;
                    } else {
                        var22 = 2.61514735;
                    }
                } else {
                    if ((input[1]) >= (251.865509)) {
                        var22 = 2.52857828;
                    } else {
                        var22 = 2.09515166;
                    }
                }
            } else {
                if ((input[6]) >= (305.737488)) {
                    if ((input[6]) >= (313.574005)) {
                        var22 = 2.58538938;
                    } else {
                        var22 = 2.19706011;
                    }
                } else {
                    if ((input[1]) >= (197.960999)) {
                        var22 = 2.02123475;
                    } else {
                        var22 = 1.7689116;
                    }
                }
            }
        } else {
            if ((input[1]) >= (151.160492)) {
                if ((input[1]) >= (170.214508)) {
                    if ((input[4]) >= (9906.25)) {
                        var22 = 2.42474556;
                    } else {
                        var22 = 1.68505502;
                    }
                } else {
                    if ((input[7]) >= (77031.7969)) {
                        var22 = 1.748227;
                    } else {
                        var22 = 1.48345101;
                    }
                }
            } else {
                if ((input[6]) >= (308.09198)) {
                    if ((input[0]) >= (175.688995)) {
                        var22 = 2.2991097;
                    } else {
                        var22 = 1.64640772;
                    }
                } else {
                    if ((input[1]) >= (137.381989)) {
                        var22 = 1.38518929;
                    } else {
                        var22 = 1.22480571;
                    }
                }
            }
        }
    } else {
        if ((input[1]) >= (74.27845)) {
            if ((input[1]) >= (96.3370514)) {
                if ((input[6]) >= (312.302002)) {
                    if ((input[0]) >= (116.487503)) {
                        var22 = 1.69880199;
                    } else {
                        var22 = 1.33720624;
                    }
                } else {
                    if ((input[5]) >= (61.0812492)) {
                        var22 = 1.14438486;
                    } else {
                        var22 = 1.00181949;
                    }
                }
            } else {
                if ((input[1]) >= (83.3661041)) {
                    if ((input[7]) >= (109046)) {
                        var22 = 0.939552784;
                    } else {
                        var22 = 0.829885662;
                    }
                } else {
                    if ((input[5]) >= (61.1624985)) {
                        var22 = 0.846511066;
                    } else {
                        var22 = 0.747301161;
                    }
                }
            }
        } else {
            if ((input[1]) >= (45.5851974)) {
                if ((input[1]) >= (60.6055489)) {
                    if ((input[2]) >= (31.53265)) {
                        var22 = 0.646140814;
                    } else {
                        var22 = 0.751306415;
                    }
                } else {
                    if ((input[6]) >= (307.156494)) {
                        var22 = 1.02301967;
                    } else {
                        var22 = 0.525638938;
                    }
                }
            } else {
                if ((input[1]) >= (24.7599506)) {
                    if ((input[6]) >= (307.785004)) {
                        var22 = 0.777892292;
                    } else {
                        var22 = 0.357284367;
                    }
                } else {
                    if ((input[1]) >= (10.9108505)) {
                        var22 = 0.168789893;
                    } else {
                        var22 = -0.220280483;
                    }
                }
            }
        }
    }
    float var23;
