float score_slew_fall(float * input) {
    float var0;
    if ((input[2]) >= (140.388504)) {
        if ((input[2]) >= (298.203491)) {
            if ((input[2]) >= (431.216492)) {
                if ((input[2]) >= (514.889526)) {
                    if ((input[5]) >= (9.61874962)) {
                        var0 = 44.3439636;
                    } else {
                        var0 = 40.0220299;
                    }
                } else {
                    if ((input[2]) >= (464.442505)) {
                        var0 = 37.9946175;
                    } else {
                        var0 = 34.6126785;
                    }
                }
            } else {
                if ((input[2]) >= (350.07901)) {
                    if ((input[3]) >= (294.471008)) {
                        var0 = 31.9139194;
                    } else {
                        var0 = 29.5352783;
                    }
                } else {
                    if ((input[5]) >= (36.3875008)) {
                        var0 = 28.5348873;
                    } else {
                        var0 = 24.8870411;
                    }
                }
            }
        } else {
            if ((input[2]) >= (218.268997)) {
                if ((input[7]) >= (53826.4492)) {
                    if ((input[7]) >= (141904.5)) {
                        var0 = 27.7124882;
                    } else {
                        var0 = 23.9125423;
                    }
                } else {
                    if ((input[2]) >= (254.311005)) {
                        var0 = 21.7837086;
                    } else {
                        var0 = 19.1557598;
                    }
                }
            } else {
                if ((input[7]) >= (36885.6992)) {
                    if ((input[3]) >= (135.483505)) {
                        var0 = 19.9365883;
                    } else {
                        var0 = 16.8672276;
                    }
                } else {
                    if ((input[3]) >= (145.12149)) {
                        var0 = 16.4427586;
                    } else {
                        var0 = 14.0217838;
                    }
                }
            }
        }
    } else {
        if ((input[2]) >= (71.8773041)) {
            if ((input[2]) >= (104.696503)) {
                if ((input[7]) >= (41062.4492)) {
                    if ((input[2]) >= (126.318497)) {
                        var0 = 14.588007;
                    } else {
                        var0 = 12.6799889;
                    }
                } else {
                    if ((input[3]) >= (95.7682495)) {
                        var0 = 12.0165749;
                    } else {
                        var0 = 10.4228582;
                    }
                }
            } else {
                if ((input[2]) >= (87.5830994)) {
                    if ((input[7]) >= (32590.8008)) {
                        var0 = 10.7906294;
                    } else {
                        var0 = 8.93329144;
                    }
                } else {
                    if ((input[7]) >= (25369.3008)) {
                        var0 = 9.09288692;
                    } else {
                        var0 = 7.50153112;
                    }
                }
            }
        } else {
            if ((input[3]) >= (34.6753502)) {
                if ((input[3]) >= (46.0028)) {
                    if ((input[5]) >= (27.7749996)) {
                        var0 = 7.50122404;
                    } else {
                        var0 = 6.34755611;
                    }
                } else {
                    if ((input[5]) >= (27.7749996)) {
                        var0 = 6.05310297;
                    } else {
                        var0 = 5.07017803;
                    }
                }
            } else {
                if ((input[3]) >= (23.2243004)) {
                    if ((input[3]) >= (28.5339508)) {
                        var0 = 4.4612236;
                    } else {
                        var0 = 3.60550308;
                    }
                } else {
                    if ((input[3]) >= (17.0401001)) {
                        var0 = 2.81118655;
                    } else {
                        var0 = 1.85965538;
                    }
                }
            }
        }
    }
    float var1;
    if ((input[2]) >= (138.67749)) {
        if ((input[2]) >= (301.924988)) {
            if ((input[2]) >= (443.222504)) {
                if ((input[2]) >= (523.567505)) {
                    if ((input[5]) >= (9.25156021)) {
                        var1 = 39.627121;
                    } else {
                        var1 = 35.497509;
                    }
                } else {
                    if ((input[2]) >= (469.653503)) {
                        var1 = 34.6137199;
                    } else {
                        var1 = 31.9596195;
                    }
                }
            } else {
                if ((input[3]) >= (275.890503)) {
                    if ((input[2]) >= (391.283997)) {
                        var1 = 29.336832;
                    } else {
                        var1 = 27.0334568;
                    }
                } else {
                    if ((input[7]) >= (74156.7031)) {
                        var1 = 28.0400639;
                    } else {
                        var1 = 23.259901;
                    }
                }
            }
        } else {
            if ((input[2]) >= (224.463501)) {
                if ((input[7]) >= (58159.6016)) {
                    if ((input[7]) >= (156032)) {
                        var1 = 25.6622982;
                    } else {
                        var1 = 22.2325783;
                    }
                } else {
                    if ((input[2]) >= (263.681)) {
                        var1 = 20.0597782;
                    } else {
                        var1 = 17.7684097;
                    }
                }
            } else {
                if ((input[7]) >= (60482.3008)) {
                    if ((input[2]) >= (168.61499)) {
                        var1 = 18.2977657;
                    } else {
                        var1 = 15.0628891;
                    }
                } else {
                    if ((input[2]) >= (187.652496)) {
                        var1 = 15.2810764;
                    } else {
                        var1 = 12.8059988;
                    }
                }
            }
        }
    } else {
        if ((input[2]) >= (68.5955505)) {
            if ((input[2]) >= (100.481506)) {
                if ((input[7]) >= (38635.3984)) {
                    if ((input[2]) >= (119.813004)) {
                        var1 = 12.6824856;
                    } else {
                        var1 = 10.9957256;
                    }
                } else {
                    if ((input[3]) >= (90.9533539)) {
                        var1 = 10.5186872;
                    } else {
                        var1 = 8.93473244;
                    }
                }
            } else {
                if ((input[2]) >= (83.2687531)) {
                    if ((input[7]) >= (30031.9004)) {
                        var1 = 9.34312439;
                    } else {
                        var1 = 7.67603254;
                    }
                } else {
                    if ((input[7]) >= (24092.9492)) {
                        var1 = 7.81912088;
                    } else {
                        var1 = 6.44687653;
                    }
                }
            }
        } else {
            if ((input[3]) >= (32.7584991)) {
                if ((input[3]) >= (42.3006516)) {
                    if ((input[5]) >= (36.3499985)) {
                        var1 = 6.48445749;
                    } else {
                        var1 = 5.50613213;
                    }
                } else {
                    if ((input[5]) >= (16.5875015)) {
                        var1 = 4.99788332;
                    } else {
                        var1 = 4.05915022;
                    }
                }
            } else {
                if ((input[3]) >= (21.3910999)) {
                    if ((input[3]) >= (27.5429001)) {
                        var1 = 3.81127238;
                    } else {
                        var1 = 3.07382131;
                    }
                } else {
                    if ((input[3]) >= (15.1167002)) {
                        var1 = 2.28990555;
                    } else {
                        var1 = 1.48758304;
                    }
                }
            }
        }
    }
    float var2;
    if ((input[2]) >= (143.834)) {
        if ((input[2]) >= (302.264008)) {
            if ((input[3]) >= (331.817993)) {
                if ((input[2]) >= (514.889526)) {
                    if ((input[5]) >= (9.79843998)) {
                        var2 = 36.2507439;
                    } else {
                        var2 = 32.6052933;
                    }
                } else {
                    if ((input[4]) >= (617.6875)) {
                        var2 = 27.9125309;
                    } else {
                        var2 = 30.8846283;
                    }
                }
            } else {
                if ((input[2]) >= (348.889496)) {
                    if ((input[5]) >= (85.2750015)) {
                        var2 = 27.7277203;
                    } else {
                        var2 = 24.5014019;
                    }
                } else {
                    if ((input[5]) >= (36.3875008)) {
                        var2 = 23.312006;
                    } else {
                        var2 = 20.2129116;
                    }
                }
            }
        } else {
            if ((input[2]) >= (228.52301)) {
                if ((input[7]) >= (56740.6484)) {
                    if ((input[7]) >= (150242)) {
                        var2 = 23.1462307;
                    } else {
                        var2 = 20.0868511;
                    }
                } else {
                    if ((input[5]) >= (9.13125038)) {
                        var2 = 17.6079369;
                    } else {
                        var2 = 15.3541899;
                    }
                }
            } else {
                if ((input[7]) >= (36532)) {
                    if ((input[3]) >= (142.467499)) {
                        var2 = 16.9710083;
                    } else {
                        var2 = 14.0916586;
                    }
                } else {
                    if ((input[2]) >= (196.824493)) {
                        var2 = 13.9248571;
                    } else {
                        var2 = 11.6077023;
                    }
                }
            }
        }
    } else {
        if ((input[2]) >= (72.8928528)) {
            if ((input[2]) >= (107.464005)) {
                if ((input[7]) >= (43535)) {
                    if ((input[2]) >= (126.362)) {
                        var2 = 11.9571667;
                    } else {
                        var2 = 10.4153776;
                    }
                } else {
                    if ((input[3]) >= (96.7911987)) {
                        var2 = 9.84519863;
                    } else {
                        var2 = 8.61162567;
                    }
                }
            } else {
                if ((input[2]) >= (90.624054)) {
                    if ((input[7]) >= (35325.7969)) {
                        var2 = 8.9616003;
                    } else {
                        var2 = 7.47570562;
                    }
                } else {
                    if ((input[7]) >= (28872)) {
                        var2 = 7.55929947;
                    } else {
                        var2 = 6.24313116;
                    }
                }
            }
        } else {
            if ((input[3]) >= (35.8197517)) {
                if ((input[2]) >= (59.6623497)) {
                    if ((input[5]) >= (30.28125)) {
                        var2 = 6.36078072;
                    } else {
                        var2 = 5.33014441;
                    }
                } else {
                    if ((input[5]) >= (30.8624992)) {
                        var2 = 5.09564209;
                    } else {
                        var2 = 4.24192953;
                    }
                }
            } else {
                if ((input[3]) >= (24.0748997)) {
                    if ((input[5]) >= (19.375)) {
                        var2 = 3.69841194;
                    } else {
                        var2 = 2.97215438;
                    }
                } else {
                    if ((input[3]) >= (17.9228001)) {
                        var2 = 2.37513828;
                    } else {
                        var2 = 1.56161344;
                    }
                }
            }
        }
    }
    float var3;
    if ((input[2]) >= (146.51001)) {
        if ((input[2]) >= (286.648499)) {
            if ((input[3]) >= (314.582001)) {
                if ((input[2]) >= (476.528992)) {
                    if ((input[5]) >= (9.14530945)) {
                        var3 = 31.8283081;
                    } else {
                        var3 = 27.9621258;
                    }
                } else {
                    if ((input[4]) >= (606.625)) {
                        var3 = 23.8543835;
                    } else {
                        var3 = 26.3475323;
                    }
                }
            } else {
                if ((input[2]) >= (336.854492)) {
                    if ((input[5]) >= (82.2249985)) {
                        var3 = 24.2786045;
                    } else {
                        var3 = 21.2314777;
                    }
                } else {
                    if ((input[5]) >= (34.1375008)) {
                        var3 = 20.5444603;
                    } else {
                        var3 = 17.2221336;
                    }
                }
            }
        } else {
            if ((input[2]) >= (211.627502)) {
                if ((input[7]) >= (113689)) {
                    if ((input[3]) >= (180.065506)) {
                        var3 = 20.5461292;
                    } else {
                        var3 = 18.2545013;
                    }
                } else {
                    if ((input[5]) >= (73.1499939)) {
                        var3 = 17.6164894;
                    } else {
                        var3 = 14.3851519;
                    }
                }
            } else {
                if ((input[7]) >= (66278.5938)) {
                    if ((input[2]) >= (173.505005)) {
                        var3 = 14.922368;
                    } else {
                        var3 = 12.7229872;
                    }
                } else {
                    if ((input[2]) >= (177.035492)) {
                        var3 = 11.731636;
                    } else {
                        var3 = 10.1917515;
                    }
                }
            }
        }
    } else {
        if ((input[2]) >= (74.9342499)) {
            if ((input[2]) >= (109.543503)) {
                if ((input[7]) >= (42351.25)) {
                    if ((input[2]) >= (130.542511)) {
                        var3 = 10.9925795;
                    } else {
                        var3 = 9.56942368;
                    }
                } else {
                    if ((input[3]) >= (99.2402039)) {
                        var3 = 8.97548199;
                    } else {
                        var3 = 7.8882103;
                    }
                }
            } else {
                if ((input[2]) >= (91.9432526)) {
                    if ((input[7]) >= (34482.5)) {
                        var3 = 8.19915867;
                    } else {
                        var3 = 6.81177664;
                    }
                } else {
                    if ((input[5]) >= (49.875)) {
                        var3 = 7.25782251;
                    } else {
                        var3 = 6.18032885;
                    }
                }
            }
        } else {
            if ((input[3]) >= (36.9413986)) {
                if ((input[2]) >= (61.2406502)) {
                    if ((input[7]) >= (22972.5996)) {
                        var3 = 5.77749777;
                    } else {
                        var3 = 4.66238546;
                    }
                } else {
                    if ((input[5]) >= (35.5749969)) {
                        var3 = 4.73894882;
                    } else {
                        var3 = 3.96259379;
                    }
                }
            } else {
                if ((input[3]) >= (25.625)) {
                    if ((input[5]) >= (14.7875004)) {
                        var3 = 3.41348147;
                    } else {
                        var3 = 2.70400929;
                    }
                } else {
                    if ((input[3]) >= (19.0132484)) {
                        var3 = 2.26975441;
                    } else {
                        var3 = 1.47629642;
                    }
                }
            }
        }
    }
    float var4;
    if ((input[2]) >= (150.309998)) {
        if ((input[2]) >= (316.125)) {
            if ((input[2]) >= (445.386475)) {
                if ((input[5]) >= (8.91875076)) {
                    if ((input[2]) >= (461.359985)) {
                        var4 = 28.3802166;
                    } else {
                        var4 = 22.8638763;
                    }
                } else {
                    if ((input[1]) >= (267.669006)) {
                        var4 = 27.0096493;
                    } else {
                        var4 = 23.9080448;
                    }
                }
            } else {
                if ((input[3]) >= (283.625488)) {
                    if ((input[0]) >= (255.051498)) {
                        var4 = 22.5917683;
                    } else {
                        var4 = 20.3155785;
                    }
                } else {
                    if ((input[5]) >= (76.9499969)) {
                        var4 = 20.4544353;
                    } else {
                        var4 = 17.4950562;
                    }
                }
            }
        } else {
            if ((input[2]) >= (235.130493)) {
                if ((input[7]) >= (62594.6016)) {
                    if ((input[2]) >= (270.656006)) {
                        var4 = 19.4607105;
                    } else {
                        var4 = 16.7087002;
                    }
                } else {
                    if ((input[5]) >= (9.65937519)) {
                        var4 = 14.8021288;
                    } else {
                        var4 = 12.9069185;
                    }
                }
            } else {
                if ((input[7]) >= (71732.0469)) {
                    if ((input[2]) >= (179.305496)) {
                        var4 = 14.3929358;
                    } else {
                        var4 = 11.8441734;
                    }
                } else {
                    if ((input[2]) >= (194.57901)) {
                        var4 = 11.5039778;
                    } else {
                        var4 = 9.66624355;
                    }
                }
            }
        }
    } else {
        if ((input[2]) >= (78.7581024)) {
            if ((input[2]) >= (111.830505)) {
                if ((input[7]) >= (49021.6016)) {
                    if ((input[2]) >= (130.7565)) {
                        var4 = 10.0289011;
                    } else {
                        var4 = 8.74898624;
                    }
                } else {
                    if ((input[5]) >= (35.8499985)) {
                        var4 = 8.57064819;
                    } else {
                        var4 = 7.45490408;
                    }
                }
            } else {
                if ((input[5]) >= (28.5437508)) {
                    if ((input[2]) >= (94.8855972)) {
                        var4 = 7.55836058;
                    } else {
                        var4 = 6.55778646;
                    }
                } else {
                    if ((input[3]) >= (73.5341034)) {
                        var4 = 6.28603268;
                    } else {
                        var4 = 5.35196304;
                    }
                }
            }
        } else {
            if ((input[3]) >= (38.4994011)) {
                if ((input[2]) >= (64.1721954)) {
                    if ((input[5]) >= (36.2750015)) {
                        var4 = 5.54982138;
                    } else {
                        var4 = 4.65961456;
                    }
                } else {
                    if ((input[5]) >= (20.9624996)) {
                        var4 = 4.34315014;
                    } else {
                        var4 = 3.51281333;
                    }
                }
            } else {
                if ((input[3]) >= (26.5559006)) {
                    if ((input[5]) >= (24.4750004)) {
                        var4 = 3.25588965;
                    } else {
                        var4 = 2.65506053;
                    }
                } else {
                    if ((input[3]) >= (19.5605011)) {
                        var4 = 2.10507178;
                    } else {
                        var4 = 1.3566879;
                    }
                }
            }
        }
    }
    float var5;
    if ((input[2]) >= (157.871002)) {
        if ((input[2]) >= (320.733002)) {
            if ((input[2]) >= (451.135498)) {
                if ((input[5]) >= (8.94375038)) {
                    if ((input[0]) >= (352.143982)) {
                        var5 = 27.4794464;
                    } else {
                        var5 = 24.8109646;
                    }
                } else {
                    if ((input[0]) >= (302.515991)) {
                        var5 = 23.7359829;
                    } else {
                        var5 = 21.4418011;
                    }
                }
            } else {
                if ((input[2]) >= (375.5755)) {
                    if ((input[4]) >= (636.3125)) {
                        var5 = 18.374773;
                    } else {
                        var5 = 20.115448;
                    }
                } else {
                    if ((input[4]) >= (618.875)) {
                        var5 = 15.5000935;
                    } else {
                        var5 = 17.7465935;
                    }
                }
            }
        } else {
            if ((input[2]) >= (239.882507)) {
                if ((input[7]) >= (62594.6016)) {
                    if ((input[2]) >= (272.318512)) {
                        var5 = 17.6244869;
                    } else {
                        var5 = 15.2140875;
                    }
                } else {
                    if ((input[5]) >= (60.84375)) {
                        var5 = 15.0291767;
                    } else {
                        var5 = 12.6371479;
                    }
                }
            } else {
                if ((input[7]) >= (32357)) {
                    if ((input[3]) >= (153.325989)) {
                        var5 = 13.0033436;
                    } else {
                        var5 = 10.9817381;
                    }
                } else {
                    if ((input[3]) >= (158.230499)) {
                        var5 = 10.4128447;
                    } else {
                        var5 = 8.56864929;
                    }
                }
            }
        }
    } else {
        if ((input[2]) >= (79.1660995)) {
            if ((input[2]) >= (114.046997)) {
                if ((input[7]) >= (52591.6484)) {
                    if ((input[2]) >= (132.949493)) {
                        var5 = 9.31413651;
                    } else {
                        var5 = 8.02475834;
                    }
                } else {
                    if ((input[5]) >= (68.625)) {
                        var5 = 8.8809948;
                    } else {
                        var5 = 7.06679153;
                    }
                }
            } else {
                if ((input[7]) >= (31620.1992)) {
                    if ((input[2]) >= (98.2578506)) {
                        var5 = 6.97163105;
                    } else {
                        var5 = 5.98606825;
                    }
                } else {
                    if ((input[3]) >= (78.1999512)) {
                        var5 = 5.91505194;
                    } else {
                        var5 = 4.81102276;
                    }
                }
            }
        } else {
            if ((input[3]) >= (39.1989975)) {
                if ((input[2]) >= (65.240799)) {
                    if ((input[5]) >= (54.3499985)) {
                        var5 = 5.243855;
                    } else {
                        var5 = 4.40103817;
                    }
                } else {
                    if ((input[5]) >= (18.3875008)) {
                        var5 = 3.95867229;
                    } else {
                        var5 = 3.1706028;
                    }
                }
            } else {
                if ((input[3]) >= (27.5429001)) {
                    if ((input[5]) >= (13.9750004)) {
                        var5 = 2.92515707;
                    } else {
                        var5 = 2.29062963;
                    }
                } else {
                    if ((input[3]) >= (20.2459507)) {
                        var5 = 1.95648086;
                    } else {
                        var5 = 1.25251031;
                    }
                }
            }
        }
    }
    float var6;
    if ((input[2]) >= (162.941498)) {
        if ((input[2]) >= (323.260498)) {
            if ((input[3]) >= (351.641479)) {
                if ((input[5]) >= (9.25156021)) {
                    if ((input[25]) >= (0.5)) {
                        var6 = 16.2161617;
                    } else {
                        var6 = 23.3511295;
                    }
                } else {
                    if ((input[1]) >= (273.16449)) {
                        var6 = 22.6479321;
                    } else {
                        var6 = 19.8193226;
                    }
                }
            } else {
                if ((input[3]) >= (290.940002)) {
                    if ((input[0]) >= (255.81601)) {
                        var6 = 18.72855;
                    } else {
                        var6 = 16.7138233;
                    }
                } else {
                    if ((input[5]) >= (79.6624985)) {
                        var6 = 17.2688313;
                    } else {
                        var6 = 14.5258255;
                    }
                }
            }
        } else {
            if ((input[2]) >= (248.425507)) {
                if ((input[5]) >= (30.8062496)) {
                    if ((input[7]) >= (76306.25)) {
                        var6 = 15.363986;
                    } else {
                        var6 = 13.1344986;
                    }
                } else {
                    if ((input[3]) >= (219.774994)) {
                        var6 = 12.1663141;
                    } else {
                        var6 = 10.7401285;
                    }
                }
            } else {
                if ((input[5]) >= (7.72578001)) {
                    if ((input[7]) >= (76782.3984)) {
                        var6 = 11.557025;
                    } else {
                        var6 = 9.64015484;
                    }
                } else {
                    if ((input[3]) >= (164.044495)) {
                        var6 = 8.90683556;
                    } else {
                        var6 = 7.59121656;
                    }
                }
            }
        }
    } else {
        if ((input[2]) >= (81.8517456)) {
            if ((input[2]) >= (115.690002)) {
                if ((input[7]) >= (53201.4492)) {
                    if ((input[2]) >= (136.272491)) {
                        var6 = 8.61462212;
                    } else {
                        var6 = 7.36128759;
                    }
                } else {
                    if ((input[5]) >= (68.625)) {
                        var6 = 8.16154003;
                    } else {
                        var6 = 6.4779892;
                    }
                }
            } else {
                if ((input[5]) >= (37.2874985)) {
                    if ((input[4]) >= (5262.5)) {
                        var6 = 5.36772966;
                    } else {
                        var6 = 6.50720167;
                    }
                } else {
                    if ((input[7]) >= (49825.8984)) {
                        var6 = 5.52141333;
                    } else {
                        var6 = 4.65870142;
                    }
                }
            }
        } else {
            if ((input[3]) >= (39.9769974)) {
                if ((input[2]) >= (66.0792007)) {
                    if ((input[7]) >= (23864.6504)) {
                        var6 = 4.5393939;
                    } else {
                        var6 = 3.59899974;
                    }
                } else {
                    if ((input[5]) >= (43.8875008)) {
                        var6 = 3.7709806;
                    } else {
                        var6 = 3.13447928;
                    }
                }
            } else {
                if ((input[3]) >= (29.2113991)) {
                    if ((input[7]) >= (11871.9004)) {
                        var6 = 2.73489451;
                    } else {
                        var6 = 2.13590121;
                    }
                } else {
                    if ((input[3]) >= (16.5438995)) {
                        var6 = 1.69671762;
                    } else {
                        var6 = 0.88641417;
                    }
                }
            }
        }
    }
    float var7;
    if ((input[2]) >= (148.954498)) {
        if ((input[2]) >= (275.987976)) {
            if ((input[2]) >= (396.966003)) {
                if ((input[3]) >= (364.961487)) {
                    if ((input[5]) >= (10.0187492)) {
                        var7 = 22.1299191;
                    } else {
                        var7 = 18.9254932;
                    }
                } else {
                    if ((input[0]) >= (277.993988)) {
                        var7 = 18.1638775;
                    } else {
                        var7 = 15.8100996;
                    }
                }
            } else {
                if ((input[3]) >= (263.27948)) {
                    if ((input[4]) >= (461.6875)) {
                        var7 = 13.4841156;
                    } else {
                        var7 = 15.1725998;
                    }
                } else {
                    if ((input[7]) >= (38038.1484)) {
                        var7 = 13.8321295;
                    } else {
                        var7 = 11.3173008;
                    }
                }
            }
        } else {
            if ((input[2]) >= (208.459)) {
                if ((input[7]) >= (118667)) {
                    if ((input[7]) >= (157620)) {
                        var7 = 13.5719213;
                    } else {
                        var7 = 12.1631546;
                    }
                } else {
                    if ((input[5]) >= (54.2249985)) {
                        var7 = 10.9287214;
                    } else {
                        var7 = 9.05891418;
                    }
                }
            } else {
                if ((input[7]) >= (31179.9004)) {
                    if ((input[5]) >= (138.625)) {
                        var7 = 13.8928013;
                    } else {
                        var7 = 8.6170845;
                    }
                } else {
                    if ((input[3]) >= (137.770508)) {
                        var7 = 7.40267134;
                    } else {
                        var7 = 6.29441977;
                    }
                }
            }
        }
    } else {
        if ((input[2]) >= (76.7937469)) {
            if ((input[2]) >= (106.862503)) {
                if ((input[7]) >= (29422)) {
                    if ((input[2]) >= (128.778)) {
                        var7 = 7.13539362;
                    } else {
                        var7 = 6.16279364;
                    }
                } else {
                    if ((input[0]) >= (108.839996)) {
                        var7 = 6.02918005;
                    } else {
                        var7 = 5.00074196;
                    }
                }
            } else {
                if ((input[5]) >= (64.9749985)) {
                    if ((input[4]) >= (4771)) {
                        var7 = 4.53812313;
                    } else {
                        var7 = 6.19091225;
                    }
                } else {
                    if ((input[7]) >= (40262.0508)) {
                        var7 = 4.71911192;
                    } else {
                        var7 = 3.99905467;
                    }
                }
            }
        } else {
            if ((input[3]) >= (33.6710968)) {
                if ((input[2]) >= (55.9512024)) {
                    if ((input[7]) >= (20592.0996)) {
                        var7 = 3.73993921;
                    } else {
                        var7 = 2.91613913;
                    }
                } else {
                    if ((input[11]) >= (0.5)) {
                        var7 = 3.49087191;
                    } else {
                        var7 = 2.52556443;
                    }
                }
            } else {
                if ((input[3]) >= (22.2181511)) {
                    if ((input[5]) >= (13.2875004)) {
                        var7 = 2.02350235;
                    } else {
                        var7 = 1.51148462;
                    }
                } else {
                    if ((input[3]) >= (13.6963005)) {
                        var7 = 1.2179153;
                    } else {
                        var7 = 0.547746062;
                    }
                }
            }
        }
    }
    float var8;
    if ((input[2]) >= (164.944)) {
        if ((input[3]) >= (254.173996)) {
            if ((input[2]) >= (443.222504)) {
                if ((input[0]) >= (321.872986)) {
                    if ((input[5]) >= (10.2624998)) {
                        var8 = 20.7132301;
                    } else {
                        var8 = 18.6358681;
                    }
                } else {
                    if ((input[4]) >= (4732.5)) {
                        var8 = 19.884922;
                    } else {
                        var8 = 16.0491104;
                    }
                }
            } else {
                if ((input[2]) >= (373.016479)) {
                    if ((input[5]) >= (88.7750015)) {
                        var8 = 16.165823;
                    } else {
                        var8 = 13.6311131;
                    }
                } else {
                    if ((input[4]) >= (637.75)) {
                        var8 = 11.3381624;
                    } else {
                        var8 = 13.1631899;
                    }
                }
            }
        } else {
            if ((input[2]) >= (240.511002)) {
                if ((input[5]) >= (73.5500031)) {
                    if ((input[5]) >= (187.625)) {
                        var8 = 15.9432268;
                    } else {
                        var8 = 11.9538622;
                    }
                } else {
                    if ((input[7]) >= (85631.9531)) {
                        var8 = 11.9334621;
                    } else {
                        var8 = 9.30304146;
                    }
                }
            } else {
                if ((input[7]) >= (76553.3984)) {
                    if ((input[3]) >= (163.123993)) {
                        var8 = 11.0969238;
                    } else {
                        var8 = 8.90425777;
                    }
                } else {
                    if ((input[5]) >= (7.48281479)) {
                        var8 = 7.68839884;
                    } else {
                        var8 = 6.336308;
                    }
                }
            }
        }
    } else {
        if ((input[2]) >= (85.1815033)) {
            if ((input[2]) >= (121.664505)) {
                if ((input[7]) >= (54391)) {
                    if ((input[4]) >= (637.5)) {
                        var8 = 6.63211393;
                    } else {
                        var8 = 10.6928635;
                    }
                } else {
                    if ((input[5]) >= (55.03125)) {
                        var8 = 6.63014984;
                    } else {
                        var8 = 5.27826738;
                    }
                }
            } else {
                if ((input[5]) >= (32.6124992)) {
                    if ((input[4]) >= (5985)) {
                        var8 = 4.5048542;
                    } else {
                        var8 = 5.3904624;
                    }
                } else {
                    if ((input[7]) >= (49825.8984)) {
                        var8 = 4.6000948;
                    } else {
                        var8 = 3.84540749;
                    }
                }
            }
        } else {
            if ((input[2]) >= (48.2128525)) {
                if ((input[2]) >= (67.0279999)) {
                    if ((input[5]) >= (21.625)) {
                        var8 = 3.75385642;
                    } else {
                        var8 = 2.93317604;
                    }
                } else {
                    if ((input[7]) >= (17436.0508)) {
                        var8 = 3.00544214;
                    } else {
                        var8 = 2.26271057;
                    }
                }
            } else {
                if ((input[3]) >= (28.4380493)) {
                    if ((input[11]) >= (0.5)) {
                        var8 = 2.625386;
                    } else {
                        var8 = 1.9199059;
                    }
                } else {
                    if ((input[5]) >= (8.96249962)) {
                        var8 = 1.44662941;
                    } else {
                        var8 = 0.84607774;
                    }
                }
            }
        }
    }
    float var9;
    if ((input[2]) >= (178.239502)) {
        if ((input[3]) >= (259.859497)) {
            if ((input[3]) >= (353.781982)) {
                if ((input[5]) >= (8.72969055)) {
                    if ((input[5]) >= (10.2312508)) {
                        var9 = 18.0334225;
                    } else {
                        var9 = 16.1703091;
                    }
                } else {
                    if ((input[1]) >= (275.4935)) {
                        var9 = 16.7924995;
                    } else {
                        var9 = 14.0870228;
                    }
                }
            } else {
                if ((input[0]) >= (244.631012)) {
                    if ((input[7]) >= (47747.8008)) {
                        var9 = 15.7398062;
                    } else {
                        var9 = 12.9919147;
                    }
                } else {
                    if ((input[7]) >= (55441.1992)) {
                        var9 = 13.5179968;
                    } else {
                        var9 = 10.9355011;
                    }
                }
            }
        } else {
            if ((input[2]) >= (257.190979)) {
                if ((input[7]) >= (62467.8984)) {
                    if ((input[5]) >= (86.6499939)) {
                        var9 = 13.0284414;
                    } else {
                        var9 = 10.8401909;
                    }
                } else {
                    if ((input[4]) >= (473.5625)) {
                        var9 = 8.32369328;
                    } else {
                        var9 = 9.86764431;
                    }
                }
            } else {
                if ((input[7]) >= (89118.0469)) {
                    if ((input[3]) >= (168.212494)) {
                        var9 = 10.4012995;
                    } else {
                        var9 = 8.69290161;
                    }
                } else {
                    if ((input[5]) >= (8.05780983)) {
                        var9 = 7.36172962;
                    } else {
                        var9 = 6.02060652;
                    }
                }
            }
        }
    } else {
        if ((input[2]) >= (87.5830994)) {
            if ((input[2]) >= (129.031006)) {
                if ((input[7]) >= (55852.4531)) {
                    if ((input[5]) >= (159.625)) {
                        var9 = 10.5848761;
                    } else {
                        var9 = 6.30731535;
                    }
                } else {
                    if ((input[5]) >= (57.3875008)) {
                        var9 = 6.41716766;
                    } else {
                        var9 = 5.0041132;
                    }
                }
            } else {
                if ((input[7]) >= (40292.75)) {
                    if ((input[2]) >= (102.6315)) {
                        var9 = 4.98467445;
                    } else {
                        var9 = 4.15336609;
                    }
                } else {
                    if ((input[3]) >= (76.0904007)) {
                        var9 = 4.0107398;
                    } else {
                        var9 = 3.15226054;
                    }
                }
            }
        } else {
            if ((input[2]) >= (49.4976501)) {
                if ((input[2]) >= (67.9670029)) {
                    if ((input[5]) >= (55.4625015)) {
                        var9 = 3.70344901;
                    } else {
                        var9 = 3.02881789;
                    }
                } else {
                    if ((input[5]) >= (43.8875008)) {
                        var9 = 2.89319134;
                    } else {
                        var9 = 2.32008934;
                    }
                }
            } else {
                if ((input[3]) >= (29.9808998)) {
                    if ((input[11]) >= (0.5)) {
                        var9 = 2.49532557;
                    } else {
                        var9 = 1.80363548;
                    }
                } else {
                    if ((input[5]) >= (12.5648499)) {
                        var9 = 1.38956022;
                    } else {
                        var9 = 0.843215466;
                    }
                }
            }
        }
    }
    float var10;
    if ((input[3]) >= (125.189499)) {
        if ((input[2]) >= (291.716003)) {
            if ((input[3]) >= (320.481506)) {
                if ((input[0]) >= (291.683502)) {
                    if ((input[5]) >= (10.4515495)) {
                        var10 = 17.0462055;
                    } else {
                        var10 = 14.5212755;
                    }
                } else {
                    if ((input[4]) >= (4738.75)) {
                        var10 = 16.2654228;
                    } else {
                        var10 = 12.0505419;
                    }
                }
            } else {
                if ((input[7]) >= (45270.3984)) {
                    if ((input[0]) >= (208.518494)) {
                        var10 = 13.0751028;
                    } else {
                        var10 = 10.6102753;
                    }
                } else {
                    if ((input[4]) >= (829.75)) {
                        var10 = 7.87580729;
                    } else {
                        var10 = 10.0895529;
                    }
                }
            }
        } else {
            if ((input[5]) >= (8.33593464)) {
                if ((input[3]) >= (169.783005)) {
                    if ((input[5]) >= (71.8874969)) {
                        var10 = 9.46352196;
                    } else {
                        var10 = 7.4721384;
                    }
                } else {
                    if ((input[5]) >= (138.625)) {
                        var10 = 10.482729;
                    } else {
                        var10 = 6.37176132;
                    }
                }
            } else {
                if ((input[3]) >= (168.029999)) {
                    if ((input[7]) >= (5164.33984)) {
                        var10 = 5.39786291;
                    } else {
                        var10 = 6.55371428;
                    }
                } else {
                    if ((input[7]) >= (4090.1001)) {
                        var10 = 4.36833239;
                    } else {
                        var10 = 5.19058704;
                    }
                }
            }
        }
    } else {
        if ((input[2]) >= (83.0063019)) {
            if ((input[2]) >= (112.685501)) {
                if ((input[7]) >= (24844.5996)) {
                    if ((input[2]) >= (136.17749)) {
                        var10 = 5.49201107;
                    } else {
                        var10 = 4.70299292;
                    }
                } else {
                    if ((input[0]) >= (108.848007)) {
                        var10 = 4.37567997;
                    } else {
                        var10 = 3.57782054;
                    }
                }
            } else {
                if ((input[5]) >= (73.1624985)) {
                    if ((input[4]) >= (2781.5)) {
                        var10 = 3.50830626;
                    } else {
                        var10 = 5.03937054;
                    }
                } else {
                    if ((input[2]) >= (96.175293)) {
                        var10 = 3.73778963;
                    } else {
                        var10 = 3.14556336;
                    }
                }
            }
        } else {
            if ((input[2]) >= (45.0002518)) {
                if ((input[2]) >= (62.2522011)) {
                    if ((input[5]) >= (49.5749969)) {
                        var10 = 3.11865258;
                    } else {
                        var10 = 2.54772472;
                    }
                } else {
                    if ((input[11]) >= (0.5)) {
                        var10 = 3.67601514;
                    } else {
                        var10 = 2.07651043;
                    }
                }
            } else {
                if ((input[3]) >= (22.8213501)) {
                    if ((input[11]) >= (0.5)) {
                        var10 = 1.88216484;
                    } else {
                        var10 = 1.36497903;
                    }
                } else {
                    if ((input[3]) >= (14.2721004)) {
                        var10 = 0.902759075;
                    } else {
                        var10 = 0.350260556;
                    }
                }
            }
        }
    }
    float var11;
    if ((input[2]) >= (171.936493)) {
        if ((input[2]) >= (326.692505)) {
            if ((input[0]) >= (264.113525)) {
                if ((input[2]) >= (527.166992)) {
                    if ((input[5]) >= (10.5906496)) {
                        var11 = 15.5385122;
                    } else {
                        var11 = 13.4813662;
                    }
                } else {
                    if ((input[7]) >= (32972.8984)) {
                        var11 = 14.3656645;
                    } else {
                        var11 = 11.5429258;
                    }
                }
            } else {
                if ((input[7]) >= (54111)) {
                    if ((input[0]) >= (223.268005)) {
                        var11 = 12.7849321;
                    } else {
                        var11 = 10.4252567;
                    }
                } else {
                    if ((input[3]) >= (299.166504)) {
                        var11 = 10.0086098;
                    } else {
                        var11 = 8.56107712;
                    }
                }
            }
        } else {
            if ((input[2]) >= (251.963501)) {
                if ((input[5]) >= (30.1937504)) {
                    if ((input[7]) >= (168752)) {
                        var11 = 10.4458075;
                    } else {
                        var11 = 8.09211636;
                    }
                } else {
                    if ((input[4]) >= (852.4375)) {
                        var11 = 6.16283751;
                    } else {
                        var11 = 7.28351831;
                    }
                }
            } else {
                if ((input[7]) >= (82792.3438)) {
                    if ((input[2]) >= (191.229004)) {
                        var11 = 7.85860538;
                    } else {
                        var11 = 6.41341734;
                    }
                } else {
                    if ((input[5]) >= (73.4499969)) {
                        var11 = 7.09574366;
                    } else {
                        var11 = 5.2341609;
                    }
                }
            }
        }
    } else {
        if ((input[2]) >= (86.7618484)) {
            if ((input[2]) >= (124.2295)) {
                if ((input[7]) >= (56740.6484)) {
                    if ((input[5]) >= (159.875)) {
                        var11 = 8.51366997;
                    } else {
                        var11 = 4.97277212;
                    }
                } else {
                    if ((input[5]) >= (61.4500008)) {
                        var11 = 5.15397215;
                    } else {
                        var11 = 3.90163016;
                    }
                }
            } else {
                if ((input[5]) >= (40.5875015)) {
                    if ((input[7]) >= (353427)) {
                        var11 = 3.27994013;
                    } else {
                        var11 = 4.17468166;
                    }
                } else {
                    if ((input[7]) >= (59672.1484)) {
                        var11 = 3.45641494;
                    } else {
                        var11 = 2.83926082;
                    }
                }
            }
        } else {
            if ((input[2]) >= (51.7748489)) {
                if ((input[5]) >= (21.8624992)) {
                    if ((input[4]) >= (5267.5)) {
                        var11 = 2.1106081;
                    } else {
                        var11 = 2.93190026;
                    }
                } else {
                    if ((input[3]) >= (52.0921478)) {
                        var11 = 2.10161352;
                    } else {
                        var11 = 1.6832813;
                    }
                }
            } else {
                if ((input[2]) >= (33.3105011)) {
                    if ((input[11]) >= (0.5)) {
                        var11 = 2.19538021;
                    } else {
                        var11 = 1.46625495;
                    }
                } else {
                    if ((input[5]) >= (8.48750019)) {
                        var11 = 1.05276585;
                    } else {
                        var11 = 0.568685114;
                    }
                }
            }
        }
    }
    float var12;
    if ((input[2]) >= (182.6745)) {
        if ((input[3]) >= (267.354492)) {
            if ((input[0]) >= (277.951477)) {
                if ((input[0]) >= (340.997498)) {
                    if ((input[1]) >= (305.017517)) {
                        var12 = 14.193367;
                    } else {
                        var12 = 12.8391895;
                    }
                } else {
                    if ((input[7]) >= (20078.3008)) {
                        var12 = 13.6137257;
                    } else {
                        var12 = 11.0942612;
                    }
                }
            } else {
                if ((input[7]) >= (58995.7031)) {
                    if ((input[4]) >= (9937.5)) {
                        var12 = 13.1452379;
                    } else {
                        var12 = 10.2868872;
                    }
                } else {
                    if ((input[4]) >= (636.3125)) {
                        var12 = 8.08433342;
                    } else {
                        var12 = 9.31202507;
                    }
                }
            }
        } else {
            if ((input[2]) >= (267.391998)) {
                if ((input[7]) >= (34590.1992)) {
                    if ((input[5]) >= (149.625)) {
                        var12 = 10.4547224;
                    } else {
                        var12 = 7.91522932;
                    }
                } else {
                    if ((input[4]) >= (924.625)) {
                        var12 = 5.63179874;
                    } else {
                        var12 = 7.13759995;
                    }
                }
            } else {
                if ((input[7]) >= (91162.7031)) {
                    if ((input[6]) >= (159.652008)) {
                        var12 = 6.53263187;
                    } else {
                        var12 = 7.85148335;
                    }
                } else {
                    if ((input[5]) >= (87.625)) {
                        var12 = 6.91140223;
                    } else {
                        var12 = 4.98386955;
                    }
                }
            }
        }
    } else {
        if ((input[2]) >= (92.1571503)) {
            if ((input[2]) >= (131.398499)) {
                if ((input[7]) >= (72484.7031)) {
                    if ((input[7]) >= (356174)) {
                        var12 = 4.12006855;
                    } else {
                        var12 = 5.24312305;
                    }
                } else {
                    if ((input[5]) >= (61.3687515)) {
                        var12 = 4.97125769;
                    } else {
                        var12 = 3.66396523;
                    }
                }
            } else {
                if ((input[5]) >= (48.3875008)) {
                    if ((input[4]) >= (5197.5)) {
                        var12 = 3.21736002;
                    } else {
                        var12 = 4.14846992;
                    }
                } else {
                    if ((input[7]) >= (62238.6016)) {
                        var12 = 3.32012534;
                    } else {
                        var12 = 2.72450042;
                    }
                }
            }
        } else {
            if ((input[2]) >= (52.7617493)) {
                if ((input[7]) >= (24003.8008)) {
                    if ((input[4]) >= (2779.25)) {
                        var12 = 2.06182647;
                    } else {
                        var12 = 2.88867164;
                    }
                } else {
                    if ((input[3]) >= (58.7150002)) {
                        var12 = 2.09143686;
                    } else {
                        var12 = 1.5563668;
                    }
                }
            } else {
                if ((input[3]) >= (30.6818008)) {
                    if ((input[4]) >= (4165)) {
                        var12 = 1.18853319;
                    } else {
                        var12 = 1.67049503;
                    }
                } else {
                    if ((input[3]) >= (20.4638996)) {
                        var12 = 0.997126698;
                    } else {
                        var12 = 0.540114701;
                    }
                }
            }
        }
    }
    float var13;
    if ((input[2]) >= (154.747986)) {
        if ((input[2]) >= (280.598511)) {
            if ((input[3]) >= (310.137024)) {
                if ((input[3]) >= (388.337006)) {
                    if ((input[5]) >= (10.2312508)) {
                        var13 = 12.2810478;
                    } else {
                        var13 = 10.5463953;
                    }
                } else {
                    if ((input[4]) >= (5805)) {
                        var13 = 11.8636112;
                    } else {
                        var13 = 8.69698524;
                    }
                }
            } else {
                if ((input[5]) >= (81.1125031)) {
                    if ((input[5]) >= (165.125)) {
                        var13 = 10.0988226;
                    } else {
                        var13 = 8.15452862;
                    }
                } else {
                    if ((input[0]) >= (228.758499)) {
                        var13 = 7.82275867;
                    } else {
                        var13 = 6.35038805;
                    }
                }
            }
        } else {
            if ((input[5]) >= (8.13125038)) {
                if ((input[3]) >= (161.972504)) {
                    if ((input[7]) >= (49182.1992)) {
                        var13 = 6.60786438;
                    } else {
                        var13 = 5.19399643;
                    }
                } else {
                    if ((input[7]) >= (74623.0469)) {
                        var13 = 5.19374418;
                    } else {
                        var13 = 4.06061888;
                    }
                }
            } else {
                if ((input[3]) >= (160.369995)) {
                    if ((input[4]) >= (847.8125)) {
                        var13 = 3.60091662;
                    } else {
                        var13 = 4.68319798;
                    }
                } else {
                    if ((input[4]) >= (4075)) {
                        var13 = 4.37580061;
                    } else {
                        var13 = 3.34916496;
                    }
                }
            }
        }
    } else {
        if ((input[2]) >= (74.2601929)) {
            if ((input[2]) >= (103.586502)) {
                if ((input[5]) >= (68.5749969)) {
                    if ((input[4]) >= (4946)) {
                        var13 = 3.24716878;
                    } else {
                        var13 = 4.47578001;
                    }
                } else {
                    if ((input[4]) >= (1560.25)) {
                        var13 = 3.42589736;
                    } else {
                        var13 = 2.7883265;
                    }
                }
            } else {
                if ((input[5]) >= (67.9749985)) {
                    if ((input[7]) >= (209553)) {
                        var13 = 2.42753506;
                    } else {
                        var13 = 3.65778804;
                    }
                } else {
                    if ((input[7]) >= (43130.1016)) {
                        var13 = 2.41904688;
                    } else {
                        var13 = 1.96383858;
                    }
                }
            }
        } else {
            if ((input[2]) >= (40.2830505)) {
                if ((input[7]) >= (18041.8008)) {
                    if ((input[4]) >= (2795)) {
                        var13 = 1.44864869;
                    } else {
                        var13 = 2.2613821;
                    }
                } else {
                    if ((input[3]) >= (47.9987488)) {
                        var13 = 1.55271232;
                    } else {
                        var13 = 1.05143631;
                    }
                }
            } else {
                if ((input[5]) >= (15.0874996)) {
                    if ((input[4]) >= (2388.25)) {
                        var13 = 0.838113248;
                    } else {
                        var13 = 1.38999212;
                    }
                } else {
                    if ((input[3]) >= (12.8617992)) {
                        var13 = 0.642485559;
                    } else {
                        var13 = 0.0587078109;
                    }
                }
            }
        }
    }
    float var14;
    if ((input[3]) >= (128.954498)) {
        if ((input[3]) >= (247.982498)) {
            if ((input[0]) >= (261.363007)) {
                if ((input[0]) >= (307.177002)) {
                    if ((input[0]) >= (355.099487)) {
                        var14 = 11.360693;
                    } else {
                        var14 = 9.84191895;
                    }
                } else {
                    if ((input[7]) >= (21183.6504)) {
                        var14 = 10.4490852;
                    } else {
                        var14 = 8.27783775;
                    }
                }
            } else {
                if ((input[7]) >= (51907)) {
                    if ((input[2]) >= (471.635498)) {
                        var14 = 11.1378813;
                    } else {
                        var14 = 7.97440052;
                    }
                } else {
                    if ((input[4]) >= (745.125)) {
                        var14 = 5.78004551;
                    } else {
                        var14 = 7.11038971;
                    }
                }
            }
        } else {
            if ((input[3]) >= (176.839996)) {
                if ((input[5]) >= (29.6124992)) {
                    if ((input[7]) >= (130856.5)) {
                        var14 = 7.40965509;
                    } else {
                        var14 = 5.65375853;
                    }
                } else {
                    if ((input[4]) >= (839.625)) {
                        var14 = 4.14708471;
                    } else {
                        var14 = 4.97052526;
                    }
                }
            } else {
                if ((input[5]) >= (34.8875008)) {
                    if ((input[5]) >= (147.375)) {
                        var14 = 8.02208519;
                    } else {
                        var14 = 4.54548979;
                    }
                } else {
                    if ((input[7]) >= (40212.5)) {
                        var14 = 4.35216236;
                    } else {
                        var14 = 3.31102872;
                    }
                }
            }
        }
    } else {
        if ((input[2]) >= (80.0196991)) {
            if ((input[2]) >= (111.068497)) {
                if ((input[7]) >= (29793.3008)) {
                    if ((input[5]) >= (129.875)) {
                        var14 = 6.22549772;
                    } else {
                        var14 = 3.37246132;
                    }
                } else {
                    if ((input[0]) >= (114.485001)) {
                        var14 = 3.00806236;
                    } else {
                        var14 = 2.32702613;
                    }
                }
            } else {
                if ((input[5]) >= (75.25)) {
                    if ((input[4]) >= (1722.75)) {
                        var14 = 2.55408216;
                    } else {
                        var14 = 3.86962771;
                    }
                } else {
                    if ((input[7]) >= (49900.7031)) {
                        var14 = 2.35793495;
                    } else {
                        var14 = 1.91787708;
                    }
                }
            }
        } else {
            if ((input[2]) >= (40.9873009)) {
                if ((input[3]) >= (48.7322502)) {
                    if ((input[5]) >= (58.6750031)) {
                        var14 = 2.05288672;
                    } else {
                        var14 = 1.62012851;
                    }
                } else {
                    if ((input[7]) >= (14745.5996)) {
                        var14 = 1.44176292;
                    } else {
                        var14 = 0.926881015;
                    }
                }
            } else {
                if ((input[5]) >= (17.5750008)) {
                    if ((input[4]) >= (2349.75)) {
                        var14 = 0.775744677;
                    } else {
                        var14 = 1.37945294;
                    }
                } else {
                    if ((input[3]) >= (15.7047501)) {
                        var14 = 0.63438499;
                    } else {
                        var14 = 0.225215554;
                    }
                }
            }
        }
    }
    float var15;
    if ((input[2]) >= (185.323502)) {
        if ((input[3]) >= (270.720001)) {
            if ((input[3]) >= (364.961487)) {
                if ((input[5]) >= (8.57499981)) {
                    if ((input[7]) >= (23892.6504)) {
                        var15 = 10.8883181;
                    } else {
                        var15 = 8.93876266;
                    }
                } else {
                    if ((input[7]) >= (6282.75488)) {
                        var15 = 7.02594233;
                    } else {
                        var15 = 8.81681633;
                    }
                }
            } else {
                if ((input[5]) >= (88.7750015)) {
                    if ((input[0]) >= (252.734497)) {
                        var15 = 9.82342911;
                    } else {
                        var15 = 8.05731487;
                    }
                } else {
                    if ((input[4]) >= (4197.5)) {
                        var15 = 8.79976559;
                    } else {
                        var15 = 6.3110528;
                    }
                }
            }
        } else {
            if ((input[5]) >= (69.1125031)) {
                if ((input[5]) >= (185.875)) {
                    if ((input[4]) >= (384.049988)) {
                        var15 = 10.1225176;
                    } else {
                        var15 = 8.28534508;
                    }
                } else {
                    if ((input[0]) >= (203.022003)) {
                        var15 = 7.47525501;
                    } else {
                        var15 = 5.3910656;
                    }
                }
            } else {
                if ((input[3]) >= (192.072998)) {
                    if ((input[4]) >= (3482.5)) {
                        var15 = 6.96125555;
                    } else {
                        var15 = 4.61893225;
                    }
                } else {
                    if ((input[7]) >= (99835.9531)) {
                        var15 = 4.99030447;
                    } else {
                        var15 = 3.39884925;
                    }
                }
            }
        }
    } else {
        if ((input[2]) >= (94.1208496)) {
            if ((input[5]) >= (72.6875)) {
                if ((input[4]) >= (5156)) {
                    if ((input[3]) >= (117.542496)) {
                        var15 = 3.22012782;
                    } else {
                        var15 = 2.38424659;
                    }
                } else {
                    if ((input[5]) >= (143.625)) {
                        var15 = 6.37230825;
                    } else {
                        var15 = 3.81908536;
                    }
                }
            } else {
                if ((input[3]) >= (96.8451538)) {
                    if ((input[4]) >= (1710.25)) {
                        var15 = 3.23239589;
                    } else {
                        var15 = 2.62230921;
                    }
                } else {
                    if ((input[7]) >= (63666.8008)) {
                        var15 = 2.48854899;
                    } else {
                        var15 = 1.92561722;
                    }
                }
            }
        } else {
            if ((input[2]) >= (53.7487488)) {
                if ((input[5]) >= (20.2749996)) {
                    if ((input[7]) >= (278772)) {
                        var15 = 1.39270616;
                    } else {
                        var15 = 2.01510191;
                    }
                } else {
                    if ((input[6]) >= (96.2479477)) {
                        var15 = 1.33900201;
                    } else {
                        var15 = 0.904802144;
                    }
                }
            } else {
                if ((input[3]) >= (24.8089504)) {
                    if ((input[11]) >= (0.5)) {
                        var15 = 1.37198842;
                    } else {
                        var15 = 0.911001384;
                    }
                } else {
                    if ((input[5]) >= (7.28750038)) {
                        var15 = 0.609845936;
                    } else {
                        var15 = 0.278281182;
                    }
                }
            }
        }
    }
    float var16;
    if ((input[2]) >= (153.3535)) {
        if ((input[3]) >= (221.497986)) {
            if ((input[3]) >= (306.734497)) {
                if ((input[0]) >= (284.510986)) {
                    if ((input[5]) >= (10.1937504)) {
                        var16 = 9.02268982;
                    } else {
                        var16 = 7.6577425;
                    }
                } else {
                    if ((input[4]) >= (5807.5)) {
                        var16 = 8.85044861;
                    } else {
                        var16 = 6.28377056;
                    }
                }
            } else {
                if ((input[7]) >= (49887.8008)) {
                    if ((input[7]) >= (83838.8984)) {
                        var16 = 7.37599325;
                    } else {
                        var16 = 5.84913588;
                    }
                } else {
                    if ((input[4]) >= (814.6875)) {
                        var16 = 4.03325748;
                    } else {
                        var16 = 5.29629087;
                    }
                }
            }
        } else {
            if ((input[5]) >= (35.8249969)) {
                if ((input[3]) >= (161.972504)) {
                    if ((input[7]) >= (133259)) {
                        var16 = 5.59642076;
                    } else {
                        var16 = 4.23211956;
                    }
                } else {
                    if ((input[5]) >= (189.625)) {
                        var16 = 7.18204212;
                    } else {
                        var16 = 3.48496747;
                    }
                }
            } else {
                if ((input[3]) >= (179.651001)) {
                    if ((input[4]) >= (873.4375)) {
                        var16 = 3.16931105;
                    } else {
                        var16 = 3.8978765;
                    }
                } else {
                    if ((input[4]) >= (2391.25)) {
                        var16 = 3.55311775;
                    } else {
                        var16 = 2.57973862;
                    }
                }
            }
        }
    } else {
        if ((input[2]) >= (70.747345)) {
            if ((input[2]) >= (101.944504)) {
                if ((input[5]) >= (71.2750015)) {
                    if ((input[7]) >= (527263.5)) {
                        var16 = 2.30635762;
                    } else {
                        var16 = 3.30647326;
                    }
                } else {
                    if ((input[7]) >= (78677.6484)) {
                        var16 = 2.50334978;
                    } else {
                        var16 = 2.03328657;
                    }
                }
            } else {
                if ((input[5]) >= (63.3875008)) {
                    if ((input[4]) >= (4686.75)) {
                        var16 = 1.56049502;
                    } else {
                        var16 = 2.54301023;
                    }
                } else {
                    if ((input[7]) >= (37831.0469)) {
                        var16 = 1.69767976;
                    } else {
                        var16 = 1.35641479;
                    }
                }
            }
        } else {
            if ((input[2]) >= (37.1620483)) {
                if ((input[5]) >= (15.3374996)) {
                    if ((input[4]) >= (3505)) {
                        var16 = 0.952444196;
                    } else {
                        var16 = 1.54217219;
                    }
                } else {
                    if ((input[3]) >= (43.8338013)) {
                        var16 = 0.947399139;
                    } else {
                        var16 = 0.666092336;
                    }
                }
            } else {
                if ((input[3]) >= (18.3539505)) {
                    if ((input[11]) >= (0.5)) {
                        var16 = 0.871325433;
                    } else {
                        var16 = 0.550351024;
                    }
                } else {
                    if ((input[3]) >= (12.13375)) {
                        var16 = 0.355602235;
                    } else {
                        var16 = -0.063993454;
                    }
                }
            }
        }
    }
    float var17;
    if ((input[2]) >= (189.694)) {
        if ((input[3]) >= (271.566498)) {
            if ((input[0]) >= (274.7995)) {
                if ((input[0]) >= (329.448975)) {
                    if ((input[2]) >= (616.671021)) {
                        var17 = 8.8219862;
                    } else {
                        var17 = 7.6086688;
                    }
                } else {
                    if ((input[7]) >= (24299.5)) {
                        var17 = 8.71229362;
                    } else {
                        var17 = 6.48564672;
                    }
                }
            } else {
                if ((input[7]) >= (59511.6992)) {
                    if ((input[0]) >= (226.3965)) {
                        var17 = 7.60161591;
                    } else {
                        var17 = 6.11093521;
                    }
                } else {
                    if ((input[4]) >= (640.75)) {
                        var17 = 4.74781179;
                    } else {
                        var17 = 5.67716885;
                    }
                }
            }
        } else {
            if ((input[5]) >= (71.9499969)) {
                if ((input[5]) >= (147.125)) {
                    if ((input[4]) >= (370.549988)) {
                        var17 = 7.73389816;
                    } else {
                        var17 = 5.63506269;
                    }
                } else {
                    if ((input[7]) >= (125249)) {
                        var17 = 5.32508421;
                    } else {
                        var17 = 4.11902475;
                    }
                }
            } else {
                if ((input[3]) >= (198.343002)) {
                    if ((input[5]) >= (11.4937496)) {
                        var17 = 4.36519003;
                    } else {
                        var17 = 3.47826457;
                    }
                } else {
                    if ((input[7]) >= (104868.5)) {
                        var17 = 4.2907896;
                    } else {
                        var17 = 2.83418822;
                    }
                }
            }
        }
    } else {
        if ((input[2]) >= (89.5670013)) {
            if ((input[2]) >= (133.697998)) {
                if ((input[7]) >= (76560.5938)) {
                    if ((input[7]) >= (358931)) {
                        var17 = 2.35742474;
                    } else {
                        var17 = 3.35803103;
                    }
                } else {
                    if ((input[5]) >= (61.3687515)) {
                        var17 = 3.05237341;
                    } else {
                        var17 = 2.15276837;
                    }
                }
            } else {
                if ((input[5]) >= (31.8875008)) {
                    if ((input[4]) >= (6625)) {
                        var17 = 1.72133601;
                    } else {
                        var17 = 2.28888512;
                    }
                } else {
                    if ((input[3]) >= (83.3936462)) {
                        var17 = 1.74690473;
                    } else {
                        var17 = 1.38771427;
                    }
                }
            }
        } else {
            if ((input[3]) >= (40.8152466)) {
                if ((input[5]) >= (45.7750015)) {
                    if ((input[4]) >= (3808)) {
                        var17 = 1.06076944;
                    } else {
                        var17 = 1.99594009;
                    }
                } else {
                    if ((input[3]) >= (53.0849533)) {
                        var17 = 1.24376714;
                    } else {
                        var17 = 0.902009666;
                    }
                }
            } else {
                if ((input[5]) >= (24.5625)) {
                    if ((input[4]) >= (2759.5)) {
                        var17 = 0.587636888;
                    } else {
                        var17 = 1.34393489;
                    }
                } else {
                    if ((input[3]) >= (21.0791512)) {
                        var17 = 0.569925964;
                    } else {
                        var17 = 0.28147462;
                    }
                }
            }
        }
    }
    float var18;
    if ((input[3]) >= (133.183502)) {
        if ((input[3]) >= (234.203003)) {
            if ((input[0]) >= (248.554001)) {
                if ((input[2]) >= (516.748535)) {
                    if ((input[5]) >= (10.5906496)) {
                        var18 = 7.83738852;
                    } else {
                        var18 = 6.50051832;
                    }
                } else {
                    if ((input[4]) >= (440.4375)) {
                        var18 = 4.93302488;
                    } else {
                        var18 = 6.12685871;
                    }
                }
            } else {
                if ((input[7]) >= (43968.6016)) {
                    if ((input[5]) >= (84.9499969)) {
                        var18 = 6.17731857;
                    } else {
                        var18 = 4.83120871;
                    }
                } else {
                    if ((input[4]) >= (745.125)) {
                        var18 = 3.42387176;
                    } else {
                        var18 = 4.46889162;
                    }
                }
            }
        } else {
            if ((input[5]) >= (8.94062519)) {
                if ((input[5]) >= (135.875)) {
                    if ((input[7]) >= (81336.2969)) {
                        var18 = 6.78656101;
                    } else {
                        var18 = 4.9264679;
                    }
                } else {
                    if ((input[0]) >= (180.137512)) {
                        var18 = 3.98642516;
                    } else {
                        var18 = 3.00821304;
                    }
                }
            } else {
                if ((input[4]) >= (765.9375)) {
                    if ((input[3]) >= (180.688507)) {
                        var18 = 2.17342997;
                    } else {
                        var18 = 1.48887753;
                    }
                } else {
                    if ((input[3]) >= (185.050995)) {
                        var18 = 3.1704278;
                    } else {
                        var18 = 2.49147296;
                    }
                }
            }
        }
    } else {
        if ((input[2]) >= (78.3199997)) {
            if ((input[2]) >= (118.515503)) {
                if ((input[7]) >= (57798)) {
                    if ((input[7]) >= (278407.5)) {
                        var18 = 1.97494054;
                    } else {
                        var18 = 2.69960284;
                    }
                } else {
                    if ((input[0]) >= (114.181999)) {
                        var18 = 2.10142899;
                    } else {
                        var18 = 1.58066928;
                    }
                }
            } else {
                if ((input[5]) >= (75.7750015)) {
                    if ((input[4]) >= (1731.5)) {
                        var18 = 1.69641149;
                    } else {
                        var18 = 2.81345177;
                    }
                } else {
                    if ((input[7]) >= (50822.3008)) {
                        var18 = 1.58697629;
                    } else {
                        var18 = 1.24888861;
                    }
                }
            }
        } else {
            if ((input[3]) >= (32.1669998)) {
                if ((input[3]) >= (48.941452)) {
                    if ((input[5]) >= (59.8499985)) {
                        var18 = 1.38376558;
                    } else {
                        var18 = 1.02824879;
                    }
                } else {
                    if ((input[4]) >= (4565)) {
                        var18 = 0.59510231;
                    } else {
                        var18 = 0.974973679;
                    }
                }
            } else {
                if ((input[5]) >= (8.875)) {
                    if ((input[4]) >= (4415)) {
                        var18 = 0.34165594;
                    } else {
                        var18 = 0.640816629;
                    }
                } else {
                    if ((input[3]) >= (11.6961498)) {
                        var18 = 0.294483304;
                    } else {
                        var18 = -0.150613412;
                    }
                }
            }
        }
    }
    float var19;
    if ((input[3]) >= (148.425507)) {
        if ((input[3]) >= (280.779999)) {
            if ((input[3]) >= (380.157501)) {
                if ((input[7]) >= (21358.25)) {
                    if ((input[7]) >= (61832.0508)) {
                        var19 = 8.26987934;
                    } else {
                        var19 = 6.768013;
                    }
                } else {
                    if ((input[0]) >= (343.425995)) {
                        var19 = 6.69756079;
                    } else {
                        var19 = 5.48771811;
                    }
                }
            } else {
                if ((input[4]) >= (4475)) {
                    if ((input[48]) >= (0.5)) {
                        var19 = 9.44171238;
                    } else {
                        var19 = 6.24535322;
                    }
                } else {
                    if ((input[4]) >= (440.75)) {
                        var19 = 4.01204443;
                    } else {
                        var19 = 5.09920454;
                    }
                }
            }
        } else {
            if ((input[7]) >= (40218.8516)) {
                if ((input[3]) >= (190.036011)) {
                    if ((input[7]) >= (149939.5)) {
                        var19 = 5.4081459;
                    } else {
                        var19 = 3.97112536;
                    }
                } else {
                    if ((input[7]) >= (426848)) {
                        var19 = 1.75887954;
                    } else {
                        var19 = 3.32388282;
                    }
                }
            } else {
                if ((input[3]) >= (214.67099)) {
                    if ((input[4]) >= (962)) {
                        var19 = 2.60609412;
                    } else {
                        var19 = 3.66053438;
                    }
                } else {
                    if ((input[4]) >= (796.5625)) {
                        var19 = 1.75437164;
                    } else {
                        var19 = 2.68274593;
                    }
                }
            }
        }
    } else {
        if ((input[2]) >= (96.475647)) {
            if ((input[5]) >= (73.7750015)) {
                if ((input[4]) >= (7635)) {
                    if ((input[15]) >= (0.5)) {
                        var19 = 2.73662925;
                    } else {
                        var19 = 1.69644475;
                    }
                } else {
                    if ((input[5]) >= (139.25)) {
                        var19 = 4.65644407;
                    } else {
                        var19 = 2.68387222;
                    }
                }
            } else {
                if ((input[4]) >= (1556.25)) {
                    if ((input[7]) >= (563459)) {
                        var19 = 1.19317555;
                    } else {
                        var19 = 2.12096763;
                    }
                } else {
                    if ((input[0]) >= (121.746506)) {
                        var19 = 1.87270868;
                    } else {
                        var19 = 1.39403129;
                    }
                }
            }
        } else {
            if ((input[3]) >= (44.3459015)) {
                if ((input[4]) >= (10255)) {
                    if ((input[2]) >= (60.6865005)) {
                        var19 = 0.803354084;
                    } else {
                        var19 = 0.546395719;
                    }
                } else {
                    if ((input[7]) >= (40244)) {
                        var19 = 1.34700191;
                    } else {
                        var19 = 0.852886319;
                    }
                }
            } else {
                if ((input[5]) >= (26.5750008)) {
                    if ((input[4]) >= (2842)) {
                        var19 = 0.48762852;
                    } else {
                        var19 = 1.20538712;
                    }
                } else {
                    if ((input[3]) >= (16.0175514)) {
                        var19 = 0.428855866;
                    } else {
                        var19 = 0.106556468;
                    }
                }
            }
        }
    }
    float var20;
    if ((input[3]) >= (151.298004)) {
        if ((input[3]) >= (280.953003)) {
            if ((input[3]) >= (352.958008)) {
                if ((input[5]) >= (8.57499981)) {
                    if ((input[7]) >= (63305.75)) {
                        var20 = 7.15192366;
                    } else {
                        var20 = 5.3916769;
                    }
                } else {
                    if ((input[48]) >= (0.5)) {
                        var20 = 7.36956882;
                    } else {
                        var20 = 4.31689596;
                    }
                }
            } else {
                if ((input[5]) >= (89.6624985)) {
                    if ((input[18]) >= (0.5)) {
                        var20 = 4.27063942;
                    } else {
                        var20 = 5.77347994;
                    }
                } else {
                    if ((input[7]) >= (1866.7749)) {
                        var20 = 3.79791427;
                    } else {
                        var20 = 6.16947174;
                    }
                }
            }
        } else {
            if ((input[5]) >= (13.0202999)) {
                if ((input[0]) >= (193.268494)) {
                    if ((input[6]) >= (236.73349)) {
                        var20 = 4.50462294;
                    } else {
                        var20 = 3.42944765;
                    }
                } else {
                    if ((input[7]) >= (86870.6484)) {
                        var20 = 3.45446467;
                    } else {
                        var20 = 2.58683181;
                    }
                }
            } else {
                if ((input[32]) >= (0.5)) {
                    if ((input[5]) >= (5.3187499)) {
                        var20 = 3.65663123;
                    } else {
                        var20 = 4.80251837;
                    }
                } else {
                    if ((input[4]) >= (819.0625)) {
                        var20 = 1.74814069;
                    } else {
                        var20 = 2.3460629;
                    }
                }
            }
        }
    } else {
        if ((input[2]) >= (97.5556488)) {
            if ((input[5]) >= (71.6624985)) {
                if ((input[4]) >= (5101)) {
                    if ((input[15]) >= (0.5)) {
                        var20 = 2.42179275;
                    } else {
                        var20 = 1.51786697;
                    }
                } else {
                    if ((input[5]) >= (133.625)) {
                        var20 = 4.15859938;
                    } else {
                        var20 = 2.43128181;
                    }
                }
            } else {
                if ((input[4]) >= (1560.25)) {
                    if ((input[2]) >= (147.6465)) {
                        var20 = 2.23199534;
                    } else {
                        var20 = 1.53146458;
                    }
                } else {
                    if ((input[0]) >= (125.679504)) {
                        var20 = 1.72244644;
                    } else {
                        var20 = 1.27085471;
                    }
                }
            }
        } else {
            if ((input[2]) >= (57.8517532)) {
                if ((input[5]) >= (55.2874985)) {
                    if ((input[4]) >= (4283)) {
                        var20 = 0.856672227;
                    } else {
                        var20 = 1.62968385;
                    }
                } else {
                    if ((input[0]) >= (72.8327484)) {
                        var20 = 1.02091134;
                    } else {
                        var20 = 0.769998014;
                    }
                }
            } else {
                if ((input[5]) >= (33.6875)) {
                    if ((input[4]) >= (3206.75)) {
                        var20 = 0.457303762;
                    } else {
                        var20 = 1.25424898;
                    }
                } else {
                    if ((input[3]) >= (21.8635006)) {
                        var20 = 0.456347555;
                    } else {
                        var20 = 0.210248664;
                    }
                }
            }
        }
    }
    float var21;
    if ((input[2]) >= (160.423492)) {
        if ((input[3]) >= (217.362488)) {
            if ((input[0]) >= (235.876999)) {
                if ((input[22]) >= (0.5)) {
                    if ((input[2]) >= (302.612488)) {
                        var21 = 1.49699807;
                    } else {
                        var21 = 2.57450891;
                    }
                } else {
                    if ((input[7]) >= (18895.6992)) {
                        var21 = 5.14597082;
                    } else {
                        var21 = 4.12480545;
                    }
                }
            } else {
                if ((input[7]) >= (78556.2031)) {
                    if ((input[5]) >= (209.375)) {
                        var21 = 6.10884953;
                    } else {
                        var21 = 4.39375639;
                    }
                } else {
                    if ((input[4]) >= (512.0625)) {
                        var21 = 2.5801065;
                    } else {
                        var21 = 3.25661969;
                    }
                }
            }
        } else {
            if ((input[7]) >= (119553.5)) {
                if ((input[7]) >= (426848)) {
                    if ((input[7]) >= (865661)) {
                        var21 = 0.991233766;
                    } else {
                        var21 = 1.7854538;
                    }
                } else {
                    if ((input[6]) >= (159.639999)) {
                        var21 = 2.75471115;
                    } else {
                        var21 = 3.92739415;
                    }
                }
            } else {
                if ((input[5]) >= (126.375)) {
                    if ((input[0]) >= (173.281998)) {
                        var21 = 5.45636845;
                    } else {
                        var21 = 3.59285402;
                    }
                } else {
                    if ((input[0]) >= (161.466492)) {
                        var21 = 2.20746708;
                    } else {
                        var21 = 1.65291536;
                    }
                }
            }
        }
    } else {
        if ((input[2]) >= (75.8798523)) {
            if ((input[2]) >= (114.2155)) {
                if ((input[7]) >= (87776.3984)) {
                    if ((input[7]) >= (235994.5)) {
                        var21 = 1.40110958;
                    } else {
                        var21 = 2.14511657;
                    }
                } else {
                    if ((input[5]) >= (120.25)) {
                        var21 = 3.11657882;
                    } else {
                        var21 = 1.23756111;
                    }
                }
            } else {
                if ((input[4]) >= (12010)) {
                    if ((input[4]) >= (20270)) {
                        var21 = 0.632058561;
                    } else {
                        var21 = 0.897175133;
                    }
                } else {
                    if ((input[7]) >= (57356.0508)) {
                        var21 = 1.30777502;
                    } else {
                        var21 = 0.912973881;
                    }
                }
            }
        } else {
            if ((input[2]) >= (37.908699)) {
                if ((input[7]) >= (23093.0996)) {
                    if ((input[4]) >= (3255)) {
                        var21 = 0.565954387;
                    } else {
                        var21 = 1.10860717;
                    }
                } else {
                    if ((input[6]) >= (85.8805542)) {
                        var21 = 0.524265766;
                    } else {
                        var21 = 0.216587946;
                    }
                }
            } else {
                if ((input[5]) >= (7.59687519)) {
                    if ((input[4]) >= (10825.5996)) {
                        var21 = 0.152904123;
                    } else {
                        var21 = 0.440347016;
                    }
                } else {
                    if ((input[3]) >= (11.0950003)) {
                        var21 = 0.181087881;
                    } else {
                        var21 = -0.230564103;
                    }
                }
            }
        }
    }
    float var22;
    if ((input[2]) >= (201.298004)) {
        if ((input[3]) >= (288.890503)) {
            if ((input[0]) >= (299.691498)) {
                if ((input[2]) >= (613.41748)) {
                    if ((input[5]) >= (9.63125038)) {
                        var22 = 5.22745371;
                    } else {
                        var22 = 6.3621254;
                    }
                } else {
                    if ((input[7]) >= (40300.3008)) {
                        var22 = 6.64063501;
                    } else {
                        var22 = 4.27121401;
                    }
                }
            } else {
                if ((input[4]) >= (4567.5)) {
                    if ((input[48]) >= (0.5)) {
                        var22 = 7.97096109;
                    } else {
                        var22 = 5.04174089;
                    }
                } else {
                    if ((input[4]) >= (745.125)) {
                        var22 = 2.92370772;
                    } else {
                        var22 = 3.72572327;
                    }
                }
            }
        } else {
            if ((input[5]) >= (80.2750015)) {
                if ((input[18]) >= (0.5)) {
                    if ((input[7]) >= (41613.8516)) {
                        var22 = 2.61257935;
                    } else {
                        var22 = 1.45252669;
                    }
                } else {
                    if ((input[0]) >= (208.796509)) {
                        var22 = 4.60744286;
                    } else {
                        var22 = 3.1719656;
                    }
                }
            } else {
                if ((input[3]) >= (207.966492)) {
                    if ((input[4]) >= (3792.5)) {
                        var22 = 4.15368795;
                    } else {
                        var22 = 2.37298727;
                    }
                } else {
                    if ((input[7]) >= (98747.6016)) {
                        var22 = 2.75332975;
                    } else {
                        var22 = 1.72711658;
                    }
                }
            }
        }
    } else {
        if ((input[2]) >= (99.0551987)) {
            if ((input[5]) >= (71.5749969)) {
                if ((input[7]) >= (531630)) {
                    if ((input[15]) >= (0.5)) {
                        var22 = 2.02933025;
                    } else {
                        var22 = 1.22665644;
                    }
                } else {
                    if ((input[5]) >= (187.875)) {
                        var22 = 4.24635792;
                    } else {
                        var22 = 2.05543089;
                    }
                }
            } else {
                if ((input[3]) >= (110.820999)) {
                    if ((input[7]) >= (44357.5)) {
                        var22 = 1.65531123;
                    } else {
                        var22 = 1.26564705;
                    }
                } else {
                    if ((input[7]) >= (81728.5469)) {
                        var22 = 1.31775272;
                    } else {
                        var22 = 0.957300603;
                    }
                }
            }
        } else {
            if ((input[3]) >= (47.6497002)) {
                if ((input[5]) >= (67.2875061)) {
                    if ((input[4]) >= (1622.75)) {
                        var22 = 0.916009128;
                    } else {
                        var22 = 1.929793;
                    }
                } else {
                    if ((input[4]) >= (10215)) {
                        var22 = 0.496224016;
                    } else {
                        var22 = 0.801032841;
                    }
                }
            } else {
                if ((input[5]) >= (16.6794014)) {
                    if ((input[4]) >= (2779.75)) {
                        var22 = 0.348538756;
                    } else {
                        var22 = 0.74670881;
                    }
                } else {
                    if ((input[3]) >= (12.4440498)) {
                        var22 = 0.258703321;
                    } else {
                        var22 = -0.103111409;
                    }
                }
            }
        }
    }
    float var23;
    if ((input[3]) >= (156.694504)) {
        if ((input[3]) >= (288.890503)) {
            if ((input[3]) >= (392.465515)) {
                if ((input[1]) >= (300.049988)) {
                    if ((input[0]) >= (386.041992)) {
                        var23 = 5.74030256;
                    } else {
                        var23 = 4.83624935;
                    }
                } else {
                    if ((input[6]) >= (66.9831467)) {
                        var23 = 3.7722466;
                    } else {
                        var23 = 5.06524372;
